{"learner":{"attributes":{"best_iteration":"998","best_score":"0.6220910337195732","scikit_learn":"{\"_estimator_type\": \"classifier\"}"},"feature_names":[],"feature_types":[],"gradient_booster":{"model":{"cats":{"enc":[],"feature_segments":[],"sorted_idx":[]},"gbtree_model_param":{"num_parallel_tree":"1","num_trees":"1000"},"iteration_indptr":[0,1,2,3,4,5,6,7,8,9,10,11,12,13,14,15,16,17,18,19,20,21,22,23,24,25,26,27,28,29,30,31,32,33,34,35,36,37,38,39,40,41,42,43,44,45,46,47,48,49,50,51,52,53,54,55,56,57,58,59,60,61,62,63,64,65,66,67,68,69,70,71,72,73,74,75,76,77,78,79,80,81,82,83,84,85,86,87,88,89,90,91,92,93,94,95,96,97,98,99,100,101,102,103,104,105,106,107,108,109,110,111,112,113,114,115,116,117,118,119,120,121,122,123,124,125,126,127,128,129,130,131,132,133,134,135,136,137,138,139,140,141,142,143,144,145,146,147,148,149,150,151,152,153,154,155,156,157,158,159,160,161,162,163,164,165,166,167,168,169,170,171,172,173,174,175,176,177,178,179,180,181,182,183,184,185,186,187,188,189,190,191,192,193,194,195,196,197,198,199,200,201,202,203,204,205,206,207,208,209,210,211,212,213,214,215,216,217,218,219,220,221,222,223,224,225,226,227,228,229,230,231,232,233,234,235,236,237,238,239,240,241,242,243,244,245,246,247,248,249,250,251,252,253,254,255,256,257,258,259,260,261,262,263,264,265,266,267,268,269,270,271,272,273,274,275,276,277,278,279,280,281,282,283,284,285,286,287,288,289,290,291,292,293,294,295,296,297,298,299,300,301,302,303,304,305,306,307,308,309,310,311,312,313,314,315,316,317,318,319,320,321,322,323,324,325,326,327,328,329,330,331,332,333,334,335,336,337,338,339,340,341,342,343,344,345,346,347,348,349,350,351,352,353,354,355,356,357,358,359,360,361,362,363,364,365,366,367,368,369,370,371,372,373,374,375,376,377,378,379,380,381,382,383,384,385,386,387,388,389,390,391,392,393,394,395,396,397,398,399,400,401,402,403,404,405,406,407,408,409,410,411,412,413,414,415,416,417,418,419,420,421,422,423,424,425,426,427,428,429,430,431,432,433,434,435,436,437,438,439,440,441,442,443,444,445,446,447,448,449,450,451,452,453,454,455,456,457,458,459,460,461,462,463,464,465,466,467,468,469,470,471,472,473,474,475,476,477,478,479,480,481,482,483,484,485,486,487,488,489,490,491,492,493,494,495,496,497,498,499,500,501,502,503,504,505,506,507,508,509,510,511,512,513,514,515,516,517,518,519,520,521,522,523,524,525,526,527,528,529,530,531,532,533,534,535,536,537,538,539,540,541,542,543,544,545,546,547,548,549,550,551,552,553,554,555,556,557,558,559,560,561,562,563,564,565,566,567,568,569,570,571,572,573,574,575,576,577,578,579,580,581,582,583,584,585,586,587,588,589,590,591,592,593,594,595,596,597,598,599,600,601,602,603,604,605,606,607,608,609,610,611,612,613,614,615,616,617,618,619,620,621,622,623,624,625,626,627,628,629,630,631,632,633,634,635,636,637,638,639,640,641,642,643,644,645,646,647,648,649,650,651,652,653,654,655,656,657,658,659,660,661,662,663,664,665,666,667,668,669,670,671,672,673,674,675,676,677,678,679,680,681,682,683,684,685,686,687,688,689,690,691,692,693,694,695,696,697,698,699,700,701,702,703,704,705,706,707,708,709,710,711,712,713,714,715,716,717,718,719,720,721,722,723,724,725,726,727,728,729,730,731,732,733,734,735,736,737,738,739,740,741,742,743,744,745,746,747,748,749,750,751,752,753,754,755,756,757,758,759,760,761,762,763,764,765,766,767,768,769,770,771,772,773,774,775,776,777,778,779,780,781,782,783,784,785,786,787,788,789,790,791,792,793,794,795,796,797,798,799,800,801,802,803,804,805,806,807,808,809,810,811,812,813,814,815,816,817,818,819,820,821,822,823,824,825,826,827,828,829,830,831,832,833,834,835,836,837,838,839,840,841,842,843,844,845,846,847,848,849,850,851,852,853,854,855,856,857,858,859,860,861,862,863,864,865,866,867,868,869,870,871,872,873,874,875,876,877,878,879,880,881,882,883,884,885,886,887,888,889,890,891,892,893,894,895,896,897,898,899,900,901,902,903,904,905,906,907,908,909,910,911,912,913,914,915,916,917,918,919,920,921,922,923,924,925,926,927,928,929,930,931,932,933,934,935,936,937,938,939,940,941,942,943,944,945,946,947,948,949,950,951,952,953,954,955,956,957,958,959,960,961,962,963,964,965,966,967,968,969,970,971,972,973,974,975,976,977,978,979,980,981,982,983,984,985,986,987,988,989,990,991,992,993,994,995,996,997,998,999,1000],"tree_info":[0,0,0,0,0,0,0,0,0,0,0,0,0,0,0,0,0,0,0,0,0,0,0,0,0,0,0,0,0,0,0,0,0,0,0,0,0,0,0,0,0,0,0,0,0,0,0,0,0,0,0,0,0,0,0,0,0,0,0,0,0,0,0,0,0,0,0,0,0,0,0,0,0,0,0,0,0,0,0,0,0,0,0,0,0,0,0,0,0,0,0,0,0,0,0,0,0,0,0,0,0,0,0,0,0,0,0,0,0,0,0,0,0,0,0,0,0,0,0,0,0,0,0,0,0,0,0,0,0,0,0,0,0,0,0,0,0,0,0,0,0,0,0,0,0,0,0,0,0,0,0,0,0,0,0,0,0,0,0,0,0,0,0,0,0,0,0,0,0,0,0,0,0,0,0,0,0,0,0,0,0,0,0,0,0,0,0,0,0,0,0,0,0,0,0,0,0,0,0,0,0,0,0,0,0,0,0,0,0,0,0,0,0,0,0,0,0,0,0,0,0,0,0,0,0,0,0,0,0,0,0,0,0,0,0,0,0,0,0,0,0,0,0,0,0,0,0,0,0,0,0,0,0,0,0,0,0,0,0,0,0,0,0,0,0,0,0,0,0,0,0,0,0,0,0,0,0,0,0,0,0,0,0,0,0,0,0,0,0,0,0,0,0,0,0,0,0,0,0,0,0,0,0,0,0,0,0,0,0,0,0,0,0,0,0,0,0,0,0,0,0,0,0,0,0,0,0,0,0,0,0,0,0,0,0,0,0,0,0,0,0,0,0,0,0,0,0,0,0,0,0,0,0,0,0,0,0,0,0,0,0,0,0,0,0,0,0,0,0,0,0,0,0,0,0,0,0,0,0,0,0,0,0,0,0,0,0,0,0,0,0,0,0,0,0,0,0,0,0,0,0,0,0,0,0,0,0,0,0,0,0,0,0,0,0,0,0,0,0,0,0,0,0,0,0,0,0,0,0,0,0,0,0,0,0,0,0,0,0,0,0,0,0,0,0,0,0,0,0,0,0,0,0,0,0,0,0,0,0,0,0,0,0,0,0,0,0,0,0,0,0,0,0,0,0,0,0,0,0,0,0,0,0,0,0,0,0,0,0,0,0,0,0,0,0,0,0,0,0,0,0,0,0,0,0,0,0,0,0,0,0,0,0,0,0,0,0,0,0,0,0,0,0,0,0,0,0,0,0,0,0,0,0,0,0,0,0,0,0,0,0,0,0,0,0,0,0,0,0,0,0,0,0,0,0,0,0,0,0,0,0,0,0,0,0,0,0,0,0,0,0,0,0,0,0,0,0,0,0,0,0,0,0,0,0,0,0,0,0,0,0,0,0,0,0,0,0,0,0,0,0,0,0,0,0,0,0,0,0,0,0,0,0,0,0,0,0,0,0,0,0,0,0,0,0,0,0,0,0,0,0,0,0,0,0,0,0,0,0,0,0,0,0,0,0,0,0,0,0,0,0,0,0,0,0,0,0,0,0,0,0,0,0,0,0,0,0,0,0,0,0,0,0,0,0,0,0,0,0,0,0,0,0,0,0,0,0,0,0,0,0,0,0,0,0,0,0,0,0,0,0,0,0,0,0,0,0,0,0,0,0,0,0,0,0,0,0,0,0,0,0,0,0,0,0,0,0,0,0,0,0,0,0,0,0,0,0,0,0,0,0,0,0,0,0,0,0,0,0,0,0,0,0,0,0,0,0,0,0,0,0,0,0,0,0,0,0,0,0,0,0,0,0,0,0,0,0,0,0,0,0,0,0,0,0,0,0,0,0,0,0,0,0,0,0,0,0,0,0,0,0,0,0,0,0,0,0,0,0,0,0,0,0,0,0,0,0,0,0,0,0,0,0,0,0,0,0,0,0,0,0,0,0,0,0,0,0,0,0,0,0,0,0,0,0,0,0,0,0,0,0,0,0,0,0,0,0,0,0,0,0,0,0,0,0,0,0,0,0,0,0,0,0,0,0,0,0,0,0,0,0,0,0,0,0,0,0,0,0,0,0,0,0,0,0,0,0,0,0,0,0,0,0,0,0,0,0,0,0,0,0,0,0,0,0,0,0,0,0,0,0,0,0,0,0,0,0,0,0,0,0,0,0,0,0,0,0,0,0,0,0,0,0,0,0,0,0,0,0,0,0,0,0,0,0,0,0,0,0,0,0,0,0,0,0,0,0,0,0,0,0,0,0,0,0,0,0,0,0,0,0,0,0,0,0,0,0,0,0,0,0,0,0,0,0,0,0,0,0,0],"trees":[{"base_weights":[-1.3792105E-5,4.249539E-3,-4.703693E-1,-1.4866501E-1,1.5365309E-2,-1.08244866E-1,-8.352057E-1,-5.3061604E-2,-3.258677E-1,-1.3376338E-2,7.9761654E-2,-8.5359335E-1,7.361399E-2,-1.3717111E0,-2.9666692E-1,-3.9045387E-3,-1.7906451E-1,-1.7919695E-2,-7.394561E-2,-3.2900122E-3,6.158695E-3,2.1226164E-2,5.911013E-3,-3.1988103E-2,-1.777096E-1,-2.2475168E-2,5.9038665E-2,-1.8756388E-1,-1.08702086E-1,7.160377E-2,-4.1705087E-2],"categories":[],"categories_nodes":[],"categories_segments":[],"categories_sizes":[],"default_left":[0,0,0,0,0,0,0,0,0,0,0,0,0,0,0,0,0,0,0,0,0,0,0,0,0,0,0,0,0,0,0],"id":0,"left_children":[1,3,5,7,9,11,13,15,17,19,21,23,25,27,29,-1,-1,-1,-1,-1,-1,-1,-1,-1,-1,-1,-1,-1,-1,-1,-1],"loss_changes":[7.182895E1,6.034069E1,4.2418922E1,4.0737766E1,6.1252323E1,2.2106726E1,4.5859123E1,3.801584E1,5.099666E1,3.349126E1,2.7932243E1,1.5192293E1,2.0431608E1,9.429642E0,1.0196688E1,0E0,0E0,0E0,0E0,0E0,0E0,0E0,0E0,0E0,0E0,0E0,0E0,0E0,0E0,0E0,0E0],"parents":[2147483647,0,0,1,1,2,2,3,3,4,4,5,5,6,6,7,7,8,8,9,9,10,10,11,11,12,12,13,13,14,14],"right_children":[2,4,6,8,10,12,14,16,18,20,22,24,26,28,30,-1,-1,-1,-1,-1,-1,-1,-1,-1,-1,-1,-1,-1,-1,-1,-1],"split_conditions":[1.6962241E0,-1.4802307E0,-1.1295986E-1,-1.5745808E0,1.5218705E0,1E0,7.772578E-1,2.2706764E0,1.5218705E0,8.451178E-1,-1.1489162E0,-7.150739E-1,1.5218705E0,1.7088041E0,8.0299896E-1,-3.9045387E-3,-1.7906451E-1,-1.7919695E-2,-7.394561E-2,-3.2900122E-3,6.158695E-3,2.1226164E-2,5.911013E-3,-3.1988103E-2,-1.777096E-1,-2.2475168E-2,5.9038665E-2,-1.8756388E-1,-1.08702086E-1,7.160377E-2,-4.1705087E-2],"split_indices":[1,1,0,1,2,7,0,0,2,0,0,0,2,1,0,0,0,0,0,0,0,0,0,0,0,0,0,0,0,0,0],"split_type":[0,0,0,0,0,0,0,0,0,0,0,0,0,0,0,0,0,0,0,0,0,0,0,0,0,0,0,0,0,0,0],"sum_hessian":[3.581789E4,3.5497133E4,3.207572E2,2.40468E3,3.3092453E4,1.6162767E2,1.5912955E2,1.5628171E3,8.418628E2,2.2880932E4,1.02115205E4,3.0976553E1,1.3065111E2,7.894025E1,8.01893E1,1.5513258E3,1.14913025E1,6.225288E2,2.1933398E2,1.815351E4,4.727422E3,1.3757087E3,8.8358125E3,2.0484495E1,1.0492059E1,8.3187035E1,4.7464073E1,2.6479958E1,5.2460293E1,7.9939494E0,7.219536E1],"tree_param":{"num_deleted":"0","num_feature":"9","num_nodes":"31","size_leaf_vector":"1"}},{"base_weights":[-3.453092E-5,3.816255E-3,-4.2615265E-1,-1.3400756E-1,1.3828798E-2,7.7077694E-2,-6.4746827E-1,-5.6402087E-2,-3.2647863E-1,-1.2039157E-2,7.177281E-2,-1.2521066E-1,8.7009025E-1,-8.589073E-1,-2.670196E-1,2.4125086E-2,-1.019878E-2,-1.668208E-2,-6.68211E-2,-1.5597519E-3,3.5276372E-2,1.9095557E-2,5.3191027E-3,2.8208306E-2,-1.0027975E-1,1.0924417E-1,-1.14757776E-1,-3.6629226E-2,-1.24933615E-1,6.519613E-2,-3.7653193E-2],"categories":[],"categories_nodes":[],"categories_segments":[],"categories_sizes":[],"default_left":[0,0,0,0,0,0,0,0,0,0,0,0,0,0,0,0,0,0,0,0,0,0,0,0,0,0,0,0,0,0,0],"id":1,"left_children":[1,3,5,7,9,11,13,15,17,19,21,23,25,27,29,-1,-1,-1,-1,-1,-1,-1,-1,-1,-1,-1,-1,-1,-1,-1,-1],"loss_changes":[5.8774315E1,4.898762E1,3.577714E1,3.5893555E1,4.960602E1,1.5971029E1,1.7701881E1,2.3289715E1,3.7570335E1,2.970735E1,2.2611233E1,2.8755354E1,1.0326131E1,2.7012802E1,8.40543E0,0E0,0E0,0E0,0E0,0E0,0E0,0E0,0E0,0E0,0E0,0E0,0E0,0E0,0E0,0E0,0E0],"parents":[2147483647,0,0,1,1,2,2,3,3,4,4,5,5,6,6,7,7,8,8,9,9,10,10,11,11,12,12,13,13,14,14],"right_children":[2,4,6,8,10,12,14,16,18,20,22,24,26,28,30,-1,-1,-1,-1,-1,-1,-1,-1,-1,-1,-1,-1,-1,-1,-1,-1],"split_conditions":[1.6962241E0,-1.4802307E0,-6.326772E-1,1.5218705E0,1.5218705E0,-7.795282E-1,7.772578E-1,-1.1910535E0,-1.5745808E0,1.671064E0,-1.1489162E0,-1.1910535E0,1E0,-1.1295986E-1,8.0299896E-1,2.4125086E-2,-1.019878E-2,-1.668208E-2,-6.68211E-2,-1.5597519E-3,3.5276372E-2,1.9095557E-2,5.3191027E-3,2.8208306E-2,-1.0027975E-1,1.0924417E-1,-1.14757776E-1,-3.6629226E-2,-1.24933615E-1,6.519613E-2,-3.7653193E-2],"split_indices":[1,1,0,2,2,0,0,0,1,1,0,0,5,0,0,0,0,0,0,0,0,0,0,0,0,0,0,0,0,0,0],"split_type":[0,0,0,0,0,0,0,0,0,0,0,0,0,0,0,0,0,0,0,0,0,0,0,0,0,0,0,0,0,0,0],"sum_hessian":[3.5816574E4,3.5496785E4,3.1978976E2,2.4032595E3,3.3093527E4,9.78802E1,2.2190958E2,1.7136135E3,6.89646E2,2.2879998E4,1.0213529E4,7.8657646E1,1.9222551E1,1.4182883E2,8.008074E1,2.2701588E2,1.4865977E3,4.710561E2,2.1858989E2,2.2659926E4,2.2007234E2,1.376357E3,8.837172E3,5.4187466E1,2.4470182E1,1.7727505E1,1.495047E0,6.3565117E1,7.826372E1,7.9994497E0,7.208129E1],"tree_param":{"num_deleted":"0","num_feature":"9","num_nodes":"31","size_leaf_vector":"1"}},{"base_weights":[-4.1137202E-5,3.4328823E-3,-3.86393E-1,1.9562863E-2,-7.306137E-2,6.858614E-2,-5.875994E-1,-1.0177179E-1,2.8283192E-2,-1.8582693E-1,-2.7657889E-2,-2.0726956E-1,5.840291E-1,-7.271734E-1,-1.0421365E-1,-1.5180075E-3,-3.2216266E-2,3.9071705E-2,2.4877116E-3,-1.6784735E-2,-1.1839813E-1,-5.3767464E-4,-3.329727E-2,2.7635325E-2,-6.208396E-2,7.794728E-2,-1.3889442E-1,-1.1753434E-1,-5.087779E-2,6.272086E-2,-3.7098538E-2],"categories":[],"categories_nodes":[],"categories_segments":[],"categories_sizes":[],"default_left":[0,0,0,0,0,0,0,0,0,0,0,0,0,0,0,0,0,0,0,0,0,0,0,0,0,0,0,0,0,0,0],"id":2,"left_children":[1,3,5,7,9,11,13,15,17,19,21,23,25,27,29,-1,-1,-1,-1,-1,-1,-1,-1,-1,-1,-1,-1,-1,-1,-1,-1],"loss_changes":[4.8071568E1,4.3798817E1,2.9259476E1,3.1021257E1,3.1644974E1,1.4164308E1,1.4862572E1,3.7511852E1,3.375434E1,3.1644093E1,2.998747E1,1.3186905E1,1.4460339E1,1.6201721E1,1.0140039E1,0E0,0E0,0E0,0E0,0E0,0E0,0E0,0E0,0E0,0E0,0E0,0E0,0E0,0E0,0E0,0E0],"parents":[2147483647,0,0,1,1,2,2,3,3,4,4,5,5,6,6,7,7,8,8,9,9,10,10,11,11,12,12,13,13,14,14],"right_children":[2,4,6,8,10,12,14,16,18,20,22,24,26,28,30,-1,-1,-1,-1,-1,-1,-1,-1,-1,-1,-1,-1,-1,-1,-1,-1],"split_conditions":[1.6962241E0,1E0,-6.326772E-1,-1.4802307E0,-7.002695E-1,1.5218705E0,1.1291732E0,1.5218705E0,-1.4550706E0,-7.2542953E-1,1.5138139E0,1.7088041E0,2E0,1.7088041E0,1.230192E0,-1.5180075E-3,-3.2216266E-2,3.9071705E-2,2.4877116E-3,-1.6784735E-2,-1.1839813E-1,-5.3767464E-4,-3.329727E-2,2.7635325E-2,-6.208396E-2,7.794728E-2,-1.3889442E-1,-1.1753434E-1,-5.087779E-2,6.272086E-2,-3.7098538E-2],"split_indices":[1,5,0,1,1,2,0,2,1,1,1,1,3,1,0,0,0,0,0,0,0,0,0,0,0,0,0,0,0,0,0],"split_type":[0,0,0,0,0,0,0,0,0,0,0,0,0,0,0,0,0,0,0,0,0,0,0,0,0,0,0,0,0,0,0],"sum_hessian":[3.581368E4,3.54955E4,3.1817923E2,2.9314777E4,6.1807246E3,9.77655E1,2.2041371E2,1.9648721E3,2.7349904E4,1.7733304E3,4.407394E3,6.407279E1,3.3692715E1,1.7063873E2,4.9774975E1,1.4114008E3,5.5347144E2,2.5357687E2,2.7096328E4,1.7431003E3,3.022999E1,4.1085776E3,2.988165E2,2.9687937E1,3.4384853E1,3.1206324E1,2.48639E0,5.4472935E1,1.161658E2,1.2941494E1,3.683348E1],"tree_param":{"num_deleted":"0","num_feature":"9","num_nodes":"31","size_leaf_vector":"1"}},{"base_weights":[-5.147562E-5,3.0838198E-3,-3.5066283E-1,1.7605636E-2,-6.580306E-2,-6.6522405E-2,-6.414706E-1,-6.977557E-4,7.2196566E-2,-1.674443E-1,-2.4902996E-2,-7.5825334E-1,1.0073504E-1,-1.0872611E0,-2.082688E-1,1.9300778E-3,-1.2767947E-2,1.2411225E-2,-3.1596124E-3,-1.4527336E-2,-8.541191E-2,-9.474891E-3,6.9301547E-3,-3.0665804E-2,-1.5552108E-1,-1.4650429E-2,5.267478E-2,-8.323929E-2,-1.6060604E-1,-6.523656E-3,-9.063977E-2],"categories":[],"categories_nodes":[],"categories_segments":[],"categories_sizes":[],"default_left":[0,0,0,0,0,0,0,0,0,0,0,0,0,0,0,0,0,0,0,0,0,0,0,0,0,0,0,0,0,0,0],"id":3,"left_children":[1,3,5,7,9,11,13,15,17,19,21,23,25,27,29,-1,-1,-1,-1,-1,-1,-1,-1,-1,-1,-1,-1,-1,-1,-1,-1],"loss_changes":[3.93681E1,3.5509575E1,2.6185326E1,2.9292976E1,2.56875E1,1.8780352E1,3.0044853E1,5.5759087E1,3.9669556E1,2.6870354E1,2.9010448E1,1.0894346E1,1.3882157E1,8.846603E0,8.002644E0,0E0,0E0,0E0,0E0,0E0,0E0,0E0,0E0,0E0,0E0,0E0,0E0,0E0,0E0,0E0,0E0],"parents":[2147483647,0,0,1,1,2,2,3,3,4,4,5,5,6,6,7,7,8,8,9,9,10,10,11,11,12,12,13,13,14,14],"right_children":[2,4,6,8,10,12,14,16,18,20,22,24,26,28,30,-1,-1,-1,-1,-1,-1,-1,-1,-1,-1,-1,-1,-1,-1,-1,-1],"split_conditions":[1.6962241E0,1E0,-1.1295986E-1,6.870741E-1,-7.002695E-1,1E0,7.772578E-1,3.711809E-1,5.199923E-1,-7.442996E-1,2.5699884E-1,-7.150739E-1,1.5218705E0,1E0,2E0,1.9300778E-3,-1.2767947E-2,1.2411225E-2,-3.1596124E-3,-1.4527336E-2,-8.541191E-2,-9.474891E-3,6.9301547E-3,-3.0665804E-2,-1.5552108E-1,-1.4650429E-2,5.267478E-2,-8.323929E-2,-1.6060604E-1,-6.523656E-3,-9.063977E-2],"split_indices":[1,5,0,0,1,7,0,0,1,1,0,0,2,3,3,0,0,0,0,0,0,0,0,0,0,0,0,0,0,0,0],"split_type":[0,0,0,0,0,0,0,0,0,0,0,0,0,0,0,0,0,0,0,0,0,0,0,0,0,0,0,0,0,0,0],"sum_hessian":[3.581096E4,3.5494547E4,3.1641406E2,2.9315406E4,6.17914E3,1.6066318E2,1.5575089E2,2.1955195E4,7.3602095E3,1.7721226E3,4.4070176E3,3.0595427E1,1.3006775E2,7.601604E1,7.973485E1,1.8968645E4,2.986551E3,4.906067E3,2.4541428E3,1.7178687E3,5.4253983E1,2.530688E3,1.8763295E3,2.0413128E1,1.0182299E1,8.271795E1,4.7349804E1,5.2720657E1,2.3295378E1,6.708413E1,1.2650712E1],"tree_param":{"num_deleted":"0","num_feature":"9","num_nodes":"31","size_leaf_vector":"1"}},{"base_weights":[-6.780573E-5,2.7713254E-3,-3.1997362E-1,-4.2374894E-2,2.4405045E-2,-6.111833E-2,-5.873726E-1,-6.1553534E-2,6.985859E-2,-1.4913335E-1,3.3049505E-2,-6.968543E-1,9.104577E-2,-1.1639917E0,-2.8546715E-1,-3.0651265E-3,-1.5761774E-2,-6.1180554E-3,3.228994E-2,3.655536E-2,-1.8124351E-2,1.0993485E-3,8.261476E-3,-2.777853E-2,-1.45819E-1,-1.32171875E-2,4.7563694E-2,-1.3065325E-1,-5.7381958E-2,-6.0129906E-3,-7.425081E-2],"categories":[],"categories_nodes":[],"categories_segments":[],"categories_sizes":[],"default_left":[0,0,0,0,0,0,0,0,0,0,0,0,0,0,0,0,0,0,0,0,0,0,0,0,0,0,0,0,0,0,0],"id":4,"left_children":[1,3,5,7,9,11,13,15,17,19,21,23,25,27,29,-1,-1,-1,-1,-1,-1,-1,-1,-1,-1,-1,-1,-1,-1,-1,-1],"loss_changes":[3.2524315E1,3.466802E1,2.176846E1,2.4755875E1,3.6003384E1,1.5655292E1,2.6621666E1,2.9150967E1,5.5681614E1,1.8886948E1,2.4988642E1,9.563224E0,1.1303364E1,3.6990204E0,1.0557919E1,0E0,0E0,0E0,0E0,0E0,0E0,0E0,0E0,0E0,0E0,0E0,0E0,0E0,0E0,0E0,0E0],"parents":[2147483647,0,0,1,1,2,2,3,3,4,4,5,5,6,6,7,7,8,8,9,9,10,10,11,11,12,12,13,13,14,14],"right_children":[2,4,6,8,10,12,14,16,18,20,22,24,26,28,30,-1,-1,-1,-1,-1,-1,-1,-1,-1,-1,-1,-1,-1,-1,-1,-1],"split_conditions":[1.6962241E0,-5.933394E-1,-1.1295986E-1,1.0744039E0,-1.6395171E0,1E0,5.3645504E-1,3.5994634E-1,1.5218705E0,-4.801192E-1,1.5218705E0,-7.150739E-1,1.5218705E0,1E0,1E0,-3.0651265E-3,-1.5761774E-2,-6.1180554E-3,3.228994E-2,3.655536E-2,-1.8124351E-2,1.0993485E-3,8.261476E-3,-2.777853E-2,-1.45819E-1,-1.32171875E-2,4.7563694E-2,-1.3065325E-1,-5.7381958E-2,-6.0129906E-3,-7.425081E-2],"split_indices":[1,1,0,0,0,7,0,0,2,1,2,0,2,5,3,0,0,0,0,0,0,0,0,0,0,0,0,0,0,0,0],"split_type":[0,0,0,0,0,0,0,0,0,0,0,0,0,0,0,0,0,0,0,0,0,0,0,0,0,0,0,0,0,0,0],"sum_hessian":[3.580771E4,3.54937E4,3.140116E2,1.1498063E4,2.3995635E4,1.6017903E2,1.5383257E2,9.820391E3,1.677673E3,1.1378065E3,2.285783E4,3.0243439E1,1.299356E2,5.1883358E1,1.0194921E2,7.4312114E3,2.3891794E3,1.1057896E3,5.718834E2,6.6206825E1,1.0715996E3,1.5819526E4,7.0383027E3,2.0386677E1,9.856761E0,8.263207E1,4.7303524E1,4.081237E1,1.107099E1,6.9041084E1,3.2908123E1],"tree_param":{"num_deleted":"0","num_feature":"9","num_nodes":"31","size_leaf_vector":"1"}},{"base_weights":[-7.598918E-5,-1.0520195E-1,7.477618E-3,-6.8440266E-2,-4.8198256E-1,-1.4306082E-2,5.6201268E-2,-8.038916E-3,-2.1720584E-1,-5.891632E-1,7.5662357E-1,-1.1385548E-2,-5.406106E-1,1.3006884E-1,2.487318E-2,-1.6654418E-1,-8.265589E-5,-1.214524E-2,-4.948678E-2,-4.0899403E-2,-1.10502325E-1,1.7802736E-1,1.3680837E-2,-2.7908385E-3,5.2043176E-3,-3.0808136E-2,-1.0995598E-1,-2.3586849E-2,1.5337816E-2,3.533366E-3,-5.0855476E-2],"categories":[],"categories_nodes":[],"categories_segments":[],"categories_sizes":[],"default_left":[0,0,0,0,0,0,0,0,0,0,0,0,0,0,0,0,0,0,0,0,0,0,0,0,0,0,0,0,0,0,0],"id":5,"left_children":[1,3,5,7,9,11,13,15,17,19,21,23,25,27,29,-1,-1,-1,-1,-1,-1,-1,-1,-1,-1,-1,-1,-1,-1,-1,-1],"loss_changes":[2.8433014E1,3.321396E1,3.5457222E1,1.965976E1,2.8750298E1,3.5478725E1,2.388131E1,1.8614014E1,1.6738205E1,1.7838242E1,1.0807788E1,2.4063381E1,1.6216751E1,2.6252281E1,4.0465004E1,0E0,0E0,0E0,0E0,0E0,0E0,0E0,0E0,0E0,0E0,0E0,0E0,0E0,0E0,0E0,0E0],"parents":[2147483647,0,0,1,1,2,2,3,3,4,4,5,5,6,6,7,7,8,8,9,9,10,10,11,11,12,12,13,13,14,14],"right_children":[2,4,6,8,10,12,14,16,18,20,22,24,26,28,30,-1,-1,-1,-1,-1,-1,-1,-1,-1,-1,-1,-1,-1,-1,-1,-1],"split_conditions":[-1.4802307E0,-1.5053908E0,1.5218705E0,1.5218705E0,1.5016963E0,1.7088041E0,-5.71262E-1,-2.4148262E0,-1.5745808E0,1.5218705E0,1.5331233E0,8.451178E-1,1E0,-2.048891E0,1.658484E0,-1.6654418E-1,-8.265589E-5,-1.214524E-2,-4.948678E-2,-4.0899403E-2,-1.10502325E-1,1.7802736E-1,1.3680837E-2,-2.7908385E-3,5.2043176E-3,-3.0808136E-2,-1.0995598E-1,-2.3586849E-2,1.5337816E-2,3.533366E-3,-5.0855476E-2],"split_indices":[1,1,2,2,0,1,0,0,1,2,0,0,3,0,1,0,0,0,0,0,0,0,0,0,0,0,0,0,0,0,0],"split_type":[0,0,0,0,0,0,0,0,0,0,0,0,0,0,0,0,0,0,0,0,0,0,0,0,0,0,0,0,0,0,0],"sum_hessian":[3.5804234E4,2.399312E3,3.340492E4,2.1871028E3,2.1220937E2,2.3084744E4,1.0320178E4,1.5562805E3,6.3082227E2,1.9579124E2,1.6418125E1,2.2958365E4,1.2637745E2,3.0724907E3,7.2476865E3,5.746806E0,1.5505337E3,4.701318E2,1.6069044E2,1.4643887E2,4.9352367E1,5.485814E0,1.093231E1,1.821422E4,4.7441455E3,9.034435E1,3.6033096E1,1.8344438E2,2.8890464E3,7.1092095E3,1.3847726E2],"tree_param":{"num_deleted":"0","num_feature":"9","num_nodes":"31","size_leaf_vector":"1"}},{"base_weights":[-8.3139385E-5,1.2524773E-2,-5.988972E-2,1.5304342E-2,-3.070677E-1,-2.2732641E-1,-4.1520905E-2,-8.58031E-6,6.0962085E-2,9.7559124E-2,-4.95088E-1,-1.0840927E-1,-1.2188609E0,-2.673804E-2,-2.6052636E-1,3.9164065E-3,-5.1708072E-3,9.416564E-3,-7.7715316E-3,-1.5793633E-2,9.7464606E-2,-6.874491E-2,1.5537776E-2,-5.8663994E-2,1.2331318E-4,-1.5821914E-1,-6.850765E-2,-5.668198E-3,5.6931465E-3,-3.2128807E-2,1.1409539E-1],"categories":[],"categories_nodes":[],"categories_segments":[],"categories_sizes":[],"default_left":[0,0,0,0,0,0,0,0,0,0,0,0,0,0,0,0,0,0,0,0,0,0,0,0,0,0,0,0,0,0,0],"id":6,"left_children":[1,3,5,7,9,11,13,15,17,19,21,23,25,27,29,-1,-1,-1,-1,-1,-1,-1,-1,-1,-1,-1,-1,-1,-1,-1,-1],"loss_changes":[2.6995766E1,2.6271118E1,1.9161919E1,2.0495232E1,1.9447655E1,7.250162E1,1.8182554E1,4.446134E1,3.3907944E1,1.846965E1,2.191093E1,2.8899282E1,1.1690918E1,1.3192109E1,3.0609293E1,0E0,0E0,0E0,0E0,0E0,0E0,0E0,0E0,0E0,0E0,0E0,0E0,0E0,0E0,0E0,0E0],"parents":[2147483647,0,0,1,1,2,2,3,3,4,4,5,5,6,6,7,7,8,8,9,9,10,10,11,11,12,12,13,13,14,14],"right_children":[2,4,6,8,10,12,14,16,18,20,22,24,26,28,30,-1,-1,-1,-1,-1,-1,-1,-1,-1,-1,-1,-1,-1,-1,-1,-1],"split_conditions":[1E0,1.6962241E0,-1.3607205E0,6.870741E-1,-6.326772E-1,-1.4173306E0,1.5138139E0,-2.0156011E-1,1.0106131E0,-7.795282E-1,1.2069173E0,-7.288963E-1,3.380843E-1,7.715927E-1,2.0567918E0,3.9164065E-3,-5.1708072E-3,9.416564E-3,-7.7715316E-3,-1.5793633E-2,9.7464606E-2,-6.874491E-2,1.5537776E-2,-5.8663994E-2,1.2331318E-4,-1.5821914E-1,-6.850765E-2,-5.668198E-3,5.6931465E-3,-3.2128807E-2,1.1409539E-1],"split_indices":[5,1,1,0,0,1,1,0,1,0,0,0,0,1,0,0,0,0,0,0,0,0,0,0,0,0,0,0,0,0,0],"split_type":[0,0,0,0,0,0,0,0,0,0,0,0,0,0,0,0,0,0,0,0,0,0,0,0,0,0,0,0,0,0,0],"sum_hessian":[3.5799688E4,2.9567344E4,6.2323447E3,2.9313352E4,2.5399277E2,6.150078E2,5.617337E3,2.1951984E4,7.361366E3,8.073314E1,1.7325963E2,5.501378E2,6.4870026E1,5.2631934E3,3.5414337E2,1.2489186E4,9.462799E3,5.939574E3,1.4217924E3,6.315579E1,1.7577353E1,1.3367215E2,3.958748E1,1.0179311E2,4.483447E2,3.74291E1,2.7440928E1,3.8762644E3,1.3869288E3,3.4016608E2,1.3977283E1],"tree_param":{"num_deleted":"0","num_feature":"9","num_nodes":"31","size_leaf_vector":"1"}},{"base_weights":[-8.356159E-5,-3.7007228E-2,1.7378056E-2,9.230176E-2,-5.003691E-2,-1.276235E-1,2.4666643E-2,-1.3728604E-1,2.4199097E-1,-3.415512E-1,-4.293765E-2,-5.3048577E-2,-3.245215E-1,2.8355742E-2,-2.7306587E-1,2.9984936E-2,-1.969535E-2,3.1937826E-2,-2.4835177E-2,-4.464236E-2,8.619502E-2,5.828404E-2,-4.9447077E-3,5.314527E-2,-9.223829E-3,-2.5430243E-3,-6.715399E-2,4.2934936E-2,2.6315013E-3,-5.208895E-3,-4.6907116E-2],"categories":[],"categories_nodes":[],"categories_segments":[],"categories_sizes":[],"default_left":[0,0,0,0,0,0,0,0,0,0,0,0,0,0,0,0,0,0,0,0,0,0,0,0,0,0,0,0,0,0,0],"id":7,"left_children":[1,3,5,7,9,11,13,15,17,19,21,23,25,27,29,-1,-1,-1,-1,-1,-1,-1,-1,-1,-1,-1,-1,-1,-1,-1,-1],"loss_changes":[2.308046E1,1.9369762E1,2.5689032E1,3.620363E1,2.159579E1,1.7065022E1,2.542577E1,1.091002E1,2.4268566E1,3.169966E1,4.155797E1,1.9404228E1,3.313169E1,1.869497E1,1.2247137E1,0E0,0E0,0E0,0E0,0E0,0E0,0E0,0E0,0E0,0E0,0E0,0E0,0E0,0E0,0E0,0E0],"parents":[2147483647,0,0,1,1,2,2,3,3,4,4,5,5,6,6,7,7,8,8,9,9,10,10,11,11,12,12,13,13,14,14],"right_children":[2,4,6,8,10,12,14,16,18,20,22,24,26,28,30,-1,-1,-1,-1,-1,-1,-1,-1,-1,-1,-1,-1,-1,-1,-1,-1],"split_conditions":[-5.933394E-1,-1.3620467E0,-1.6395171E0,-1.758611E0,-1.2292457E0,-1.8043272E0,1.6962241E0,-2.6450312E0,1E0,3E0,-1.1910535E0,-4.801192E-1,5.4515237E-1,-1.5993556E0,-1.1295986E-1,2.9984936E-2,-1.969535E-2,3.1937826E-2,-2.4835177E-2,-4.464236E-2,8.619502E-2,5.828404E-2,-4.9447077E-3,5.314527E-2,-9.223829E-3,-2.5430243E-3,-6.715399E-2,4.2934936E-2,2.6315013E-3,-5.208895E-3,-4.6907116E-2],"split_indices":[1,0,0,0,0,0,1,0,5,3,0,1,1,0,0,0,0,0,0,0,0,0,0,0,0,0,0,0,0,0,0],"split_type":[0,0,0,0,0,0,0,0,0,0,0,0,0,0,0,0,0,0,0,0,0,0,0,0,0,0,0,0,0,0,0],"sum_hessian":[3.5795703E4,1.1492656E4,2.4303047E4,1.0514807E3,1.0441175E4,1.1623505E3,2.3140697E4,4.1502045E2,6.364602E2,2.471092E2,1.0194066E4,8.4396796E2,3.1838254E2,2.2858371E4,2.8232535E2,4.936171E1,3.6565872E2,5.500055E2,8.645475E1,2.2788087E2,1.9228334E1,1.0403683E2,1.0090029E4,5.2241573E1,7.917264E2,1.7157622E2,1.4680634E2,1.1468115E2,2.2743691E4,1.333039E2,1.4902144E2],"tree_param":{"num_deleted":"0","num_feature":"9","num_nodes":"31","size_leaf_vector":"1"}},{"base_weights":[-7.515227E-5,-1.0056904E-2,6.0431954E-2,-4.5494743E-2,9.93466E-3,-1.0165699E-1,1.09344445E-1,1.04639545E-1,-6.351226E-2,-1.3335669E-1,1.974044E-2,-1.2562329E-1,5.580608E-1,1.520063E-1,-7.261362E-2,-8.699353E-3,2.3247536E-2,-3.0292967E-2,-5.6702355E-3,-1.0033573E-2,-6.886815E-2,-3.6645503E-4,7.16705E-3,-1.0084834E-2,-1.8266608E-1,-1.4477734E-1,7.7880435E-2,1.2588205E-2,5.5294633E-2,-1.0819393E-1,-1.4972788E-3],"categories":[],"categories_nodes":[],"categories_segments":[],"categories_sizes":[],"default_left":[0,0,0,0,0,0,0,0,0,0,0,0,0,0,0,0,0,0,0,0,0,0,0,0,0,0,0,0,0,0,0],"id":8,"left_children":[1,3,5,7,9,11,13,15,17,19,21,23,25,27,29,-1,-1,-1,-1,-1,-1,-1,-1,-1,-1,-1,-1,-1,-1,-1,-1],"loss_changes":[2.1618713E1,2.1768349E1,4.0197243E1,2.9983833E1,2.760522E1,1.8656193E1,3.0240868E1,2.9118721E1,1.6115955E1,2.300603E1,2.2348768E1,4.765352E1,1.9454449E1,3.2976135E1,4.305379E1,0E0,0E0,0E0,0E0,0E0,0E0,0E0,0E0,0E0,0E0,0E0,0E0,0E0,0E0,0E0,0E0],"parents":[2147483647,0,0,1,1,2,2,3,3,4,4,5,5,6,6,7,7,8,8,9,9,10,10,11,11,12,12,13,13,14,14],"right_children":[2,4,6,8,10,12,14,16,18,20,22,24,26,28,30,-1,-1,-1,-1,-1,-1,-1,-1,-1,-1,-1,-1,-1,-1,-1,-1],"split_conditions":[1.0934932E0,-4.5495915E-1,1E0,-1.3620467E0,-1.566655E0,1.6459041E0,1.0420631E0,-1.758611E0,-1.2292457E0,-1.5993556E0,1.5218705E0,1.5641339E0,1.2069173E0,8.9110285E-1,1.0923831E0,-8.699353E-3,2.3247536E-2,-3.0292967E-2,-5.6702355E-3,-1.0033573E-2,-6.886815E-2,-3.6645503E-4,7.16705E-3,-1.0084834E-2,-1.8266608E-1,-1.4477734E-1,7.7880435E-2,1.2588205E-2,5.5294633E-2,-1.0819393E-1,-1.4972788E-3],"split_indices":[0,1,7,0,0,1,1,0,0,0,2,1,0,1,1,0,0,0,0,0,0,0,0,0,0,0,0,0,0,0,0],"split_type":[0,0,0,0,0,0,0,0,0,0,0,0,0,0,0,0,0,0,0,0,0,0,0,0,0,0,0,0,0,0,0],"sum_hessian":[3.5792527E4,3.0724752E4,5.0677744E3,1.1080948E4,1.9643803E4,1.1745168E3,3.8932576E3,1.1868116E3,9.894137E3,1.2573668E3,1.8386438E4,1.1341259E3,4.039106E1,3.1539482E3,7.393095E2,4.750318E2,7.1177985E2,2.724393E2,9.621697E3,1.1879114E3,6.9455414E1,1.2674805E4,5.7116323E3,1.1188889E3,1.5236895E1,3.4532955E0,3.6937763E1,2.9622493E3,1.9169885E2,3.897978E1,7.003297E2],"tree_param":{"num_deleted":"0","num_feature":"9","num_nodes":"31","size_leaf_vector":"1"}},{"base_weights":[-8.0392354E-5,1.10716615E-2,-5.3000364E-2,1.33770695E-2,-2.5750685E-1,-1.968024E-1,-3.725517E-2,-7.5769804E-2,1.9770507E-2,1.0025376E-1,-4.2645693E-1,-8.9155704E-2,-1.1024872E0,-2.4089916E-2,-2.3276034E-1,-5.0311657E-3,-7.115171E-2,3.5277177E-2,1.6640298E-3,-1.2888001E-2,8.895687E-2,-6.0412824E-2,1.6055193E-2,-5.1981624E-2,9.0872817E-4,-8.042448E-2,-1.7137304E-1,-3.4900312E-3,1.7630478E-2,-1.2804261E-2,-1.0260268E-1],"categories":[],"categories_nodes":[],"categories_segments":[],"categories_sizes":[],"default_left":[0,0,0,0,0,0,0,0,0,0,0,0,0,0,0,0,0,0,0,0,0,0,0,0,0,0,0,0,0,0,0],"id":9,"left_children":[1,3,5,7,9,11,13,15,17,19,21,23,25,27,29,-1,-1,-1,-1,-1,-1,-1,-1,-1,-1,-1,-1,-1,-1,-1,-1],"loss_changes":[2.112297E1,1.8307646E1,1.4097891E1,1.6707571E1,1.5252869E1,5.9817116E1,1.444964E1,3.1713846E1,2.850333E1,1.4859548E1,1.7943254E1,2.3290043E1,1.0506973E1,1.1407479E1,2.9292799E1,0E0,0E0,0E0,0E0,0E0,0E0,0E0,0E0,0E0,0E0,0E0,0E0,0E0,0E0,0E0,0E0],"parents":[2147483647,0,0,1,1,2,2,3,3,4,4,5,5,6,6,7,7,8,8,9,9,10,10,11,11,12,12,13,13,14,14],"right_children":[2,4,6,8,10,12,14,16,18,20,22,24,26,28,30,-1,-1,-1,-1,-1,-1,-1,-1,-1,-1,-1,-1,-1,-1,-1,-1],"split_conditions":[1E0,1.6962241E0,-1.3607205E0,-1.4802307E0,-6.326772E-1,-1.4173306E0,1.5138139E0,3E0,-1.4550706E0,-7.795282E-1,1.2069173E0,-7.288963E-1,1E0,1.3754336E0,2E0,-5.0311657E-3,-7.115171E-2,3.5277177E-2,1.6640298E-3,-1.2888001E-2,8.895687E-2,-6.0412824E-2,1.6055193E-2,-5.1981624E-2,9.0872817E-4,-8.042448E-2,-1.7137304E-1,-3.4900312E-3,1.7630478E-2,-1.2804261E-2,-1.0260268E-1],"split_indices":[5,1,1,1,0,1,1,3,1,0,0,0,3,1,3,0,0,0,0,0,0,0,0,0,0,0,0,0,0,0,0],"split_type":[0,0,0,0,0,0,0,0,0,0,0,0,0,0,0,0,0,0,0,0,0,0,0,0,0,0,0,0,0,0,0],"sum_hessian":[3.578956E4,2.956086E4,6.228697E3,2.9310219E4,2.506411E2,6.1355493E2,5.6151416E3,1.9606766E3,2.7349543E4,8.052718E1,1.701139E2,5.4935846E2,6.419648E1,5.261928E3,3.5321332E2,1.886223E3,7.445362E1,2.5365108E2,2.709589E4,6.30584E1,1.7468786E1,1.3056602E2,3.954788E1,1.0124539E2,4.4811307E2,4.4701256E1,1.9495224E1,4.9933833E3,2.6854483E2,3.130496E2,4.0163723E1],"tree_param":{"num_deleted":"0","num_feature":"9","num_nodes":"31","size_leaf_vector":"1"}},{"base_weights":[-8.846158E-5,-9.019767E-3,5.4042246E-2,1.624992E-2,-3.3768516E-2,-9.172724E-2,9.801513E-2,7.951508E-3,1.9759636E-1,-2.5697632E-2,-3.695485E-1,-1.1338509E-1,5.029049E-1,1.3648453E-1,-6.613192E-2,5.9420563E-5,1.8719941E-2,2.522218E-2,-6.972888E-2,-1.4778708E-2,-3.8735897E-4,-4.279088E-2,2.4945747E-2,-9.091795E-3,-1.6755974E-1,-1.3423651E-1,7.0166245E-2,1.1298617E-2,4.971198E-2,-9.827692E-2,-1.4046998E-3],"categories":[],"categories_nodes":[],"categories_segments":[],"categories_sizes":[],"default_left":[0,0,0,0,0,0,0,0,0,0,0,0,0,0,0,0,0,0,0,0,0,0,0,0,0,0,0,0,0,0,0],"id":10,"left_children":[1,3,5,7,9,11,13,15,17,19,21,23,25,27,29,-1,-1,-1,-1,-1,-1,-1,-1,-1,-1,-1,-1,-1,-1,-1,-1],"loss_changes":[1.73014E1,1.9211617E1,3.2496864E1,2.2872566E1,4.2048935E1,1.519072E1,2.459993E1,1.916947E1,3.2686802E1,4.0383118E1,1.326358E1,3.9671654E1,1.6155262E1,2.6682213E1,3.531848E1,0E0,0E0,0E0,0E0,0E0,0E0,0E0,0E0,0E0,0E0,0E0,0E0,0E0,0E0,0E0,0E0],"parents":[2147483647,0,0,1,1,2,2,3,3,4,4,5,5,6,6,7,7,8,8,9,9,10,10,11,11,12,12,13,13,14,14],"right_children":[2,4,6,8,10,12,14,16,18,20,22,24,26,28,30,-1,-1,-1,-1,-1,-1,-1,-1,-1,-1,-1,-1,-1,-1,-1,-1],"split_conditions":[1.0934932E0,-2.0156011E-1,1E0,1.589294E0,1.633324E0,1.6459041E0,1.0420631E0,-2.4100475E-1,2E0,-2.4596378E-2,9.5917314E-1,1.5641339E0,1.2069173E0,8.9110285E-1,1.0923831E0,5.9420563E-5,1.8719941E-2,2.522218E-2,-6.972888E-2,-1.4778708E-2,-3.8735897E-4,-4.279088E-2,2.4945747E-2,-9.091795E-3,-1.6755974E-1,-1.3423651E-1,7.0166245E-2,1.1298617E-2,4.971198E-2,-9.827692E-2,-1.4046998E-3],"split_indices":[0,0,7,1,1,1,1,0,5,0,0,1,0,1,1,0,0,0,0,0,0,0,0,0,0,0,0,0,0,0,0],"split_type":[0,0,0,0,0,0,0,0,0,0,0,0,0,0,0,0,0,0,0,0,0,0,0,0,0,0,0,0,0,0,0],"sum_hessian":[3.578477E4,3.0717385E4,5.0673867E3,1.5198902E4,1.5518481E4,1.1741177E3,3.8932693E3,1.4534832E4,6.640698E2,1.5155282E4,3.6319928E2,1.1336373E3,4.048032E1,3.1542173E3,7.3905194E2,1.39627295E4,5.721026E2,6.2654266E2,3.7527157E1,2.297377E3,1.2857905E4,3.32189E2,3.1010279E1,1.1186082E3,1.5029191E1,3.376745E0,3.7103577E1,2.9624993E3,1.9171796E2,3.8775593E1,7.0027637E2],"tree_param":{"num_deleted":"0","num_feature":"9","num_nodes":"31","size_leaf_vector":"1"}},{"base_weights":[-9.221351E-5,9.834714E-3,-4.7216814E-2,4.6086987E-3,1.1028582E-1,-1.2111681E-1,-2.1351244E-2,6.9551677E-3,-2.7555704E-1,2.5658882E-1,-4.5996897E-2,-6.646134E-1,-8.412088E-2,1.1516628E-1,-5.3033628E-2,-2.8096735E-3,2.4088842E-3,-4.4635916E-3,-5.4449197E-2,3.2136645E-2,-1.3398503E-2,1.5884703E-2,-2.1489607E-2,5.352508E-2,-8.574764E-2,2.7290834E-4,-2.586024E-2,-8.2685857E-4,5.5707347E-2,-1.0705557E-1,-4.5569027E-3],"categories":[],"categories_nodes":[],"categories_segments":[],"categories_sizes":[],"default_left":[0,0,0,0,0,0,0,0,0,0,0,0,0,0,0,0,0,0,0,0,0,0,0,0,0,0,0,0,0,0,0],"id":11,"left_children":[1,3,5,7,9,11,13,15,17,19,21,23,25,27,29,-1,-1,-1,-1,-1,-1,-1,-1,-1,-1,-1,-1,-1,-1,-1,-1],"loss_changes":[1.6739391E1,1.5515609E1,1.1898628E1,1.8472366E1,3.3431194E1,3.2397427E1,1.9959143E1,1.6734789E1,1.4469482E1,1.9146545E1,2.4514091E1,2.4229256E1,2.2917645E1,4.742021E1,2.8395512E1,0E0,0E0,0E0,0E0,0E0,0E0,0E0,0E0,0E0,0E0,0E0,0E0,0E0,0E0,0E0,0E0],"parents":[2147483647,0,0,1,1,2,2,3,3,4,4,5,5,6,6,7,7,8,8,9,9,10,10,11,11,12,12,13,13,14,14],"right_children":[2,4,6,8,10,12,14,16,18,20,22,24,26,28,30,-1,-1,-1,-1,-1,-1,-1,-1,-1,-1,-1,-1,-1,-1,-1,-1],"split_conditions":[1E0,1.6748376E0,-7.946197E-1,1.6962241E0,4.211539E-3,-1.4154575E0,-3.3544898E-1,-5.8075935E-1,-1.5193497E-1,2.4137685E0,1.9238983E0,-1.6437709E0,1E0,-4.172191E-1,-3.1657895E-1,-2.8096735E-3,2.4088842E-3,-4.4635916E-3,-5.4449197E-2,3.2136645E-2,-1.3398503E-2,1.5884703E-2,-2.1489607E-2,5.352508E-2,-8.574764E-2,2.7290834E-4,-2.586024E-2,-8.2685857E-4,5.5707347E-2,-1.0705557E-1,-4.5569027E-3],"split_indices":[5,0,1,1,1,0,1,1,0,0,0,1,3,1,1,0,0,0,0,0,0,0,0,0,0,0,0,0,0,0,0],"split_type":[0,0,0,0,0,0,0,0,0,0,0,0,0,0,0,0,0,0,0,0,0,0,0,0,0,0,0,0,0,0,0],"sum_hessian":[3.5781043E4,2.9555818E4,6.2252236E3,2.80952E4,1.4606199E3,1.6130186E3,4.612205E3,2.7862814E4,2.3238396E2,7.540651E2,7.0655475E2,1.0171966E2,1.511299E3,8.682654E2,3.7439395E3,9.147765E3,1.8715049E4,1.2565563E2,1.06728325E2,6.469449E2,1.07120186E2,3.1932782E2,3.8722693E2,1.3840157E1,8.78795E1,1.00969653E3,5.0160242E2,6.794583E2,1.8880708E2,2.6228554E1,3.717711E3],"tree_param":{"num_deleted":"0","num_feature":"9","num_nodes":"31","size_leaf_vector":"1"}},{"base_weights":[-9.044983E-5,-7.753695E-2,5.464029E-3,-4.4448864E-2,-4.185126E-1,3.1936637E-1,2.623046E-3,1.9193201E-1,-8.117428E-2,-5.1445544E-1,6.7945147E-1,2.4272308E-1,9.65989E-1,-1.5057638E-2,4.222368E-2,6.6949404E-3,7.291435E-2,-4.9852815E-2,-4.849325E-3,5.472262E-2,-5.9568264E-2,1.2818395E-1,-2.4267508E-2,3.1941555E-2,-1.03949025E-1,-1.3200006E-1,1.2284558E-1,-5.3353947E-2,-1.3229881E-3,1.5970247E-2,2.386064E-3],"categories":[],"categories_nodes":[],"categories_segments":[],"categories_sizes":[],"default_left":[0,0,0,0,0,0,0,0,0,0,0,0,0,0,0,0,0,0,0,0,0,0,0,0,0,0,0,0,0,0,0],"id":12,"left_children":[1,3,5,7,9,11,13,15,17,19,21,23,25,27,29,-1,-1,-1,-1,-1,-1,-1,-1,-1,-1,-1,-1,-1,-1,-1,-1],"loss_changes":[1.5391255E1,2.6995092E1,2.977136E1,1.8972527E1,2.2647858E1,1.4605118E1,2.3166536E1,1.9687157E1,2.5764654E1,1.7162495E1,9.999301E0,2.678803E1,2.0458223E1,2.1670149E1,2.2027956E1,0E0,0E0,0E0,0E0,0E0,0E0,0E0,0E0,0E0,0E0,0E0,0E0,0E0,0E0,0E0,0E0],"parents":[2147483647,0,0,1,1,2,2,3,3,4,4,5,5,6,6,7,7,8,8,9,9,10,10,11,11,12,12,13,13,14,14],"right_children":[2,4,6,8,10,12,14,16,18,20,22,24,26,28,30,-1,-1,-1,-1,-1,-1,-1,-1,-1,-1,-1,-1,-1,-1,-1,-1],"split_conditions":[-1.4802307E0,-1.5053908E0,-1.4550706E0,-1.1692969E0,1.5016963E0,2E0,1.5218705E0,-1.2708681E0,-8.6178195E-1,-1.6395171E0,1.6009146E0,1E0,-6.549863E-1,-1.4424907E0,-1.1489162E0,6.6949404E-3,7.291435E-2,-4.9852815E-2,-4.849325E-3,5.472262E-2,-5.9568264E-2,1.2818395E-1,-2.4267508E-2,3.1941555E-2,-1.03949025E-1,-1.3200006E-1,1.2284558E-1,-5.3353947E-2,-1.3229881E-3,1.5970247E-2,2.386064E-3],"split_indices":[1,1,1,0,0,5,2,0,0,0,0,5,0,1,0,0,0,0,0,0,0,0,0,0,0,0,0,0,0,0,0],"split_type":[0,0,0,0,0,0,0,0,0,0,0,0,0,0,0,0,0,0,0,0,0,0,0,0,0,0,0,0,0,0,0],"sum_hessian":[3.5777074E4,2.3933577E3,3.3383715E4,2.182682E3,2.1067583E2,2.9843106E2,3.3085285E4,2.929434E2,1.8897384E3,1.9423457E2,1.6441254E1,2.6803647E2,3.0394617E1,2.2873475E4,1.0211811E4,2.3856558E2,5.4377823E1,1.3619556E2,1.7535428E3,1.3396625E1,1.8083794E2,9.708798E0,6.7324557E0,2.5361781E2,1.4418647E1,2.7153869E0,2.767923E1,7.932866E1,2.2794146E4,1.3793876E3,8.832423E3],"tree_param":{"num_deleted":"0","num_feature":"9","num_nodes":"31","size_leaf_vector":"1"}},{"base_weights":[-8.339082E-5,8.857542E-3,-4.2539537E-2,-8.3067775E-2,1.3558833E-2,-1.6550156E-1,-2.9128188E-2,2.2480004E-1,-1.264614E-1,1.7517018E-1,6.6952645E-3,-6.7623295E-2,-1.0012957E0,2.276308E-1,-3.803221E-2,-9.704358E-3,5.583477E-2,-1.7482479E-1,-1.1439572E-2,2.6125818E-2,-7.3624873E-3,-3.0791345E-3,2.426151E-3,-2.4214067E-2,1.2678983E-2,-1.2183435E-1,-2.5683925E-2,4.953591E-2,-4.3423798E-2,-6.299179E-2,-2.715567E-3],"categories":[],"categories_nodes":[],"categories_segments":[],"categories_sizes":[],"default_left":[0,0,0,0,0,0,0,0,0,0,0,0,0,0,0,0,0,0,0,0,0,0,0,0,0,0,0,0,0,0,0],"id":13,"left_children":[1,3,5,7,9,11,13,15,17,19,21,23,25,27,29,-1,-1,-1,-1,-1,-1,-1,-1,-1,-1,-1,-1,-1,-1,-1,-1],"loss_changes":[1.3580391E1,1.2772671E1,1.0258237E1,1.923917E1,3.1185184E1,4.9982986E1,1.2840247E1,1.9162899E1,2.447481E1,2.4550892E1,1.7761086E1,1.8649134E1,1.0038986E1,3.3574677E1,3.490983E1,0E0,0E0,0E0,0E0,0E0,0E0,0E0,0E0,0E0,0E0,0E0,0E0,0E0,0E0,0E0,0E0],"parents":[2147483647,0,0,1,1,2,2,3,3,4,4,5,5,6,6,7,7,8,8,9,9,10,10,11,11,12,12,13,13,14,14],"right_children":[2,4,6,8,10,12,14,16,18,20,22,24,26,28,30,-1,-1,-1,-1,-1,-1,-1,-1,-1,-1,-1,-1,-1,-1,-1,-1],"split_conditions":[1E0,-1.6395171E0,-1.3607205E0,-1.3607205E0,-1.3620467E0,-1.4173306E0,-1.2663704E0,-1.8504478E0,-1.3229805E0,7.149826E-1,-5.933394E-1,2E0,8.5746986E-1,1E0,-1.1971803E0,-9.704358E-3,5.583477E-2,-1.7482479E-1,-1.1439572E-2,2.6125818E-2,-7.3624873E-3,-3.0791345E-3,2.426151E-3,-2.4214067E-2,1.2678983E-2,-1.2183435E-1,-2.5683925E-2,4.953591E-2,-4.3423798E-2,-6.299179E-2,-2.715567E-3],"split_indices":[5,0,1,1,0,1,1,0,1,1,1,5,0,3,1,0,0,0,0,0,0,0,0,0,0,0,0,0,0,0,0],"split_type":[0,0,0,0,0,0,0,0,0,0,0,0,0,0,0,0,0,0,0,0,0,0,0,0,0,0,0,0,0,0,0],"sum_hessian":[3.5773766E4,2.955129E4,6.222479E3,1.4369838E3,2.8114305E4,6.1082117E2,5.6116577E3,1.7700356E2,1.2599801E3,1.1443611E3,2.6969943E4,5.477555E2,6.30657E1,1.8725833E2,5.4243994E3,9.044312E1,8.656044E1,8.242075E0,1.251738E3,8.501443E2,2.9421683E2,8.605319E3,1.8364623E4,2.885181E2,2.592374E2,4.8336533E1,1.4729169E1,1.3350616E2,5.3752163E1,9.685358E1,5.327546E3],"tree_param":{"num_deleted":"0","num_feature":"9","num_nodes":"31","size_leaf_vector":"1"}},{"base_weights":[-8.788115E-5,-1.0542401E-2,3.521738E-2,-7.910845E-3,-6.5657955E-1,5.997068E-2,-6.828945E-2,4.973466E-3,-7.497364E-2,-4.5353958E-1,-1.7995875E-1,3.3902038E-2,2.3812678E-1,-6.124329E-1,-3.5976354E-2,-8.45181E-4,9.854505E-3,-1.2320603E-2,4.0522604E-3,-9.4451234E-2,-2.2230006E-4,6.2174588E-3,-4.5923855E-2,1.0775862E-1,2.1507878E-2,3.8415287E-3,-8.2858875E-2,-3.82983E-2,1.07355314E-4],"categories":[],"categories_nodes":[],"categories_segments":[],"categories_sizes":[],"default_left":[0,0,0,0,0,0,0,0,0,0,0,0,0,0,0,0,0,0,0,0,0,0,0,0,0,0,0,0,0],"id":14,"left_children":[1,3,5,7,9,11,13,15,17,19,-1,21,23,25,27,-1,-1,-1,-1,-1,-1,-1,-1,-1,-1,-1,-1,-1,-1],"loss_changes":[1.3203548E1,4.6916397E1,2.0943748E1,2.3752144E1,2.5166E1,3.0625582E1,2.7719437E1,2.8968725E1,2.4683805E1,2.135967E1,0E0,8.0269455E1,1.6055092E1,1.2465221E1,1.9161446E1,0E0,0E0,0E0,0E0,0E0,0E0,0E0,0E0,0E0,0E0,0E0,0E0,0E0,0E0],"parents":[2147483647,0,0,1,1,2,2,3,3,4,4,5,5,6,6,7,7,8,8,9,9,11,11,12,12,13,13,14,14],"right_children":[2,4,6,8,10,12,14,16,18,20,-1,22,24,26,28,-1,-1,-1,-1,-1,-1,-1,-1,-1,-1,-1,-1,-1,-1],"split_conditions":[7.643228E-1,7.5095093E-1,1.0420631E0,3.711809E-1,1.0294831E0,7.024026E-1,1.0923831E0,1.6517648E-1,7.715927E-1,-3.1657895E-1,-1.7995875E-1,5.577324E-1,7.772578E-1,9.000139E-1,8.451178E-1,-8.45181E-4,9.854505E-3,-1.2320603E-2,4.0522604E-3,-9.4451234E-2,-2.2230006E-4,6.2174588E-3,-4.5923855E-2,1.0775862E-1,2.1507878E-2,3.8415287E-3,-8.2858875E-2,-3.82983E-2,1.07355314E-4],"split_indices":[0,0,1,0,1,1,1,0,1,1,0,1,0,0,0,0,0,0,0,0,0,0,0,0,0,0,0,0,0],"split_type":[0,0,0,0,0,0,0,0,0,0,0,0,0,0,0,0,0,0,0,0,0,0,0,0,0,0,0,0,0],"sum_hessian":[3.577032E4,2.7598586E4,8.171734E3,2.748763E4,1.1095537E2,6.5949863E3,1.5767477E3,2.3058488E4,4.4291416E3,9.5404785E1,1.5550585E1,5.754196E3,8.407908E2,8.737776E1,1.4893699E3,2.0166053E4,2.892435E3,3.1243254E3,1.3048163E3,4.517144E1,5.0233345E1,5.4430127E3,3.111828E2,2.1245054E1,8.195457E2,2.1989464E1,6.53883E1,1.4277867E2,1.3465912E3],"tree_param":{"num_deleted":"0","num_feature":"9","num_nodes":"29","size_leaf_vector":"1"}},{"base_weights":[-8.962531E-5,-6.849547E-2,4.8115635E-3,3.574911E-3,-2.0311451E-1,2.886996E-1,2.2448325E-3,1.6615462E-2,-1.6349804E-1,-2.3588002E-1,8.745221E-1,5.806615E-2,4.822306E-1,-1.3688062E-2,3.7928663E-2,-2.5695371E-3,2.4341073E-2,-1.0767122E-2,-6.230113E-2,1.7774953E-1,-5.852432E-3,2.198813E-2,-1.1871552E-1,5.17765E-2,-1.4247458E-1,-4.8053447E-2,-1.2047086E-3,1.0301794E-2,1.0302658E-3],"categories":[],"categories_nodes":[],"categories_segments":[],"categories_sizes":[],"default_left":[0,0,0,0,0,0,0,0,0,0,0,0,0,0,0,0,0,0,0,0,0,0,0,0,0,0,0,0,0],"id":15,"left_children":[1,3,5,7,9,11,13,15,-1,17,19,21,23,25,27,-1,-1,-1,-1,-1,-1,-1,-1,-1,-1,-1,-1,-1,-1],"loss_changes":[1.1992578E1,2.3203346E1,2.4321009E1,3.3330894E1,2.9651215E1,1.3321085E1,1.8808237E1,1.4853868E1,0E0,4.0140854E1,2.1014755E1,2.798555E1,1.1747883E1,1.7514496E1,1.8360645E1,0E0,0E0,0E0,0E0,0E0,0E0,0E0,0E0,0E0,0E0,0E0,0E0,0E0,0E0],"parents":[2147483647,0,0,1,1,2,2,3,3,4,4,5,5,6,6,7,7,9,9,10,10,11,11,12,12,13,13,14,14],"right_children":[2,4,6,8,10,12,14,16,-1,18,20,22,24,26,28,-1,-1,-1,-1,-1,-1,-1,-1,-1,-1,-1,-1,-1,-1],"split_conditions":[-1.4802307E0,-1.5745808E0,-1.4550706E0,2.2706764E0,2.0567918E0,-4.795249E-3,1.5218705E0,1.0560071E0,-1.6349804E-1,1.5218705E0,1E0,-2.5132748E-1,2.0567918E0,-1.4424907E0,-5.71262E-1,-2.5695371E-3,2.4341073E-2,-1.0767122E-2,-6.230113E-2,1.7774953E-1,-5.852432E-3,2.198813E-2,-1.1871552E-1,5.17765E-2,-1.4247458E-1,-4.8053447E-2,-1.2047086E-3,1.0301794E-2,1.0302658E-3],"split_indices":[1,1,1,0,0,0,2,0,0,2,7,0,0,1,0,0,0,0,0,0,0,0,0,0,0,0,0,0,0],"split_type":[0,0,0,0,0,0,0,0,0,0,0,0,0,0,0,0,0,0,0,0,0,0,0,0,0,0,0,0,0],"sum_hessian":[3.576793E4,2.3905183E3,3.3377414E4,1.5576042E3,8.32914E2,2.98074E2,3.307934E4,1.5462878E3,1.1316374E1,8.090946E2,2.3819386E1,1.3659361E2,1.6148038E2,2.2868936E4,1.0210403E4,1.3039164E3,2.4237143E2,6.087643E2,2.0033034E2,1.1644834E1,1.2174552E1,1.21613495E2,1.4980122E1,1.5924158E2,2.238801E0,7.9081055E1,2.2789854E4,3.0415405E3,7.168863E3],"tree_param":{"num_deleted":"0","num_feature":"9","num_nodes":"29","size_leaf_vector":"1"}},{"base_weights":[-9.118909E-5,-3.214096E-2,1.0386343E-2,-4.5053205E-1,-2.4104524E-2,-1.6945832E-3,8.197505E-2,-3.664223E-1,-1.6997916E-1,6.5814085E-2,-5.684683E-2,3.8316934E-3,-1.8170291E-1,1.1391621E-1,-5.444691E-2,-4.9670454E-2,1.6521142E-1,1.0169245E-1,5.9197005E-3,-2.832158E-2,-2.3614315E-3,5.5095003E-5,2.0681512E-2,-3.1628273E-2,2.4408342E-3,2.345368E-2,6.0902736E-3,-5.850482E-2,1.0110294E-3],"categories":[],"categories_nodes":[],"categories_segments":[],"categories_sizes":[],"default_left":[0,0,0,0,0,0,0,0,0,0,0,0,0,0,0,0,0,0,0,0,0,0,0,0,0,0,0,0,0],"id":16,"left_children":[1,3,5,7,9,11,13,15,-1,17,19,21,23,25,27,-1,-1,-1,-1,-1,-1,-1,-1,-1,-1,-1,-1,-1,-1],"loss_changes":[1.201016E1,2.9617111E1,2.3311457E1,1.6820324E1,2.5460619E1,2.2943281E1,1.6964867E1,4.205841E1,0E0,1.446874E1,4.7681023E1,1.4901615E1,1.9063187E1,2.015295E1,2.5320526E1,0E0,0E0,0E0,0E0,0E0,0E0,0E0,0E0,0E0,0E0,0E0,0E0,0E0,0E0],"parents":[2147483647,0,0,1,1,2,2,3,3,4,4,5,5,6,6,7,7,9,9,10,10,11,11,12,12,13,13,14,14],"right_children":[2,4,6,8,10,12,14,16,-1,18,20,22,24,26,28,-1,-1,-1,-1,-1,-1,-1,-1,-1,-1,-1,-1,-1,-1],"split_conditions":[1E0,-1.9695873E0,1.0934932E0,1.4949437E0,-6.0828686E-1,9.7474945E-1,1.0420631E0,1.4572037E0,-1.6997916E-1,-1.706671E0,-1.2349204E0,9.2950815E-1,1E0,1.2941934E0,1.1364132E0,-4.9670454E-2,1.6521142E-1,1.0169245E-1,5.9197005E-3,-2.832158E-2,-2.3614315E-3,5.5095003E-5,2.0681512E-2,-3.1628273E-2,2.4408342E-3,2.345368E-2,6.0902736E-3,-5.850482E-2,1.0110294E-3],"split_indices":[7,0,0,1,0,0,1,1,0,1,1,0,3,0,1,0,0,0,0,0,0,0,0,0,0,0,0,0,0],"split_type":[0,0,0,0,0,0,0,0,0,0,0,0,0,0,0,0,0,0,0,0,0,0,0,0,0,0,0,0,0],"sum_hessian":[3.576355E4,8.810624E3,2.6952928E4,1.65007E2,8.645617E3,2.3062072E4,3.8908555E3,1.5581E2,9.197012E0,2.3075354E3,6.338082E3,2.2376102E4,6.859703E2,3.152832E3,7.380235E2,1.470715E2,8.738495E0,1.4888201E1,2.2926472E3,8.1039777E2,5.5276846E3,2.2021186E4,3.549173E2,4.1467484E2,2.712954E2,9.615685E2,2.1912634E3,7.917931E1,6.588442E2],"tree_param":{"num_deleted":"0","num_feature":"9","num_nodes":"29","size_leaf_vector":"1"}},{"base_weights":[-8.428321E-5,8.025752E-3,-3.8607847E-2,9.877427E-3,-2.118128E-1,-2.9350815E-2,-1.9252859E-1,-7.6579794E-2,1.4267897E-2,7.263328E-2,-3.4932554E-1,-5.487213E-2,5.310135E-2,-2.8177214E-1,6.1734843E-1,-6.0089715E-3,-8.0713734E-2,1.03148725E-2,4.8449612E-4,-1.3230572E-2,7.8857146E-2,-6.358745E-2,-5.522543E-3,-1.00433535E-4,-1.1987027E-2,7.3365048E-3,-1.3386278E-1,-1.8213823E-2,-1.0791335E-1,1.2928452E-1,3.0123616E-2],"categories":[],"categories_nodes":[],"categories_segments":[],"categories_sizes":[],"default_left":[0,0,0,0,0,0,0,0,0,0,0,0,0,0,0,0,0,0,0,0,0,0,0,0,0,0,0,0,0,0,0],"id":17,"left_children":[1,3,5,7,9,11,13,15,17,19,21,23,25,27,29,-1,-1,-1,-1,-1,-1,-1,-1,-1,-1,-1,-1,-1,-1,-1,-1],"loss_changes":[1.1173203E1,1.2028186E1,8.856134E0,1.112199E1,9.67911E0,1.2350464E1,2.5662058E1,1.7010363E1,2.3351408E1,1.2026987E1,1.4000313E1,1.569044E1,3.922679E1,2.5093102E1,7.151675E0,0E0,0E0,0E0,0E0,0E0,0E0,0E0,0E0,0E0,0E0,0E0,0E0,0E0,0E0,0E0,0E0],"parents":[2147483647,0,0,1,1,2,2,3,3,4,4,5,5,6,6,7,7,8,8,9,9,10,10,11,11,12,12,13,13,14,14],"right_children":[2,4,6,8,10,12,14,16,18,20,22,24,26,28,30,-1,-1,-1,-1,-1,-1,-1,-1,-1,-1,-1,-1,-1,-1,-1,-1],"split_conditions":[1E0,1.6962241E0,1.5138139E0,-1.6395171E0,-6.326772E-1,7.715927E-1,1.5331233E0,1.601874E0,-1.0941169E0,-7.795282E-1,5.3645504E-1,9.5940724E-2,1.9850734E0,2E0,1.6009146E0,-6.0089715E-3,-8.0713734E-2,1.03148725E-2,4.8449612E-4,-1.3230572E-2,7.8857146E-2,-6.358745E-2,-5.522543E-3,-1.00433535E-4,-1.1987027E-2,7.3365048E-3,-1.3386278E-1,-1.8213823E-2,-1.0791335E-1,1.2928452E-1,3.0123616E-2],"split_indices":[5,1,1,0,0,1,0,1,0,0,0,0,0,3,0,0,0,0,0,0,0,0,0,0,0,0,0,0,0,0,0],"split_type":[0,0,0,0,0,0,0,0,0,0,0,0,0,0,0,0,0,0,0,0,0,0,0,0,0,0,0,0,0,0,0],"sum_hessian":[3.576056E4,2.9542104E4,6.218454E3,2.92963E4,2.4580426E2,5.866806E3,3.5164813E2,1.4150315E3,2.788127E4,8.025925E1,1.6554501E2,4.480345E3,1.3864609E3,3.1733212E2,3.4316E1,1.3848549E3,3.0176567E1,2.6716138E3,2.5209654E4,6.303152E1,1.7227722E1,8.326032E1,8.228468E1,2.4504927E3,2.0298524E3,1.3674973E3,1.8963596E1,2.831764E2,3.4155746E1,9.954505E0,2.4361498E1],"tree_param":{"num_deleted":"0","num_feature":"9","num_nodes":"31","size_leaf_vector":"1"}},{"base_weights":[-8.3861574E-5,-9.250166E-3,3.0874211E-2,-6.875374E-3,-5.948634E-1,-5.411331E-1,3.5409883E-2,4.1485266E-3,-6.427919E-2,-2.567615E-1,-1.2474124E0,-9.0764284E-1,2.9169816E-1,4.6666446E-1,2.7633881E-2,-2.0955653E-4,1.8865094E-2,-1.1270503E-2,3.9932826E-3,-8.5557416E-2,6.761482E-2,-1.8291536E-1,-8.684174E-2,-1.4210269E-1,-2.2484742E-2,6.186053E-2,-1.3471611E-1,7.624649E-2,8.032159E-4,3.9138775E-2,1.9938457E-3],"categories":[],"categories_nodes":[],"categories_segments":[],"categories_sizes":[],"default_left":[0,0,0,0,0,0,0,0,0,0,0,0,0,0,0,0,0,0,0,0,0,0,0,0,0,0,0,0,0,0,0],"id":18,"left_children":[1,3,5,7,9,11,13,15,17,19,21,23,25,27,29,-1,-1,-1,-1,-1,-1,-1,-1,-1,-1,-1,-1,-1,-1,-1,-1],"loss_changes":[1.0147232E1,3.8364986E1,2.121294E1,1.738946E1,2.4261707E1,1.9899822E1,2.7168736E1,2.6558743E1,2.2345745E1,4.22815E1,6.7382965E0,1.5423775E1,1.177052E1,1.9461819E1,2.2282846E1,0E0,0E0,0E0,0E0,0E0,0E0,0E0,0E0,0E0,0E0,0E0,0E0,0E0,0E0,0E0,0E0],"parents":[2147483647,0,0,1,1,2,2,3,3,4,4,5,5,6,6,7,7,8,8,9,9,10,10,11,11,12,12,13,13,14,14],"right_children":[2,4,6,8,10,12,14,16,18,20,22,24,26,28,30,-1,-1,-1,-1,-1,-1,-1,-1,-1,-1,-1,-1,-1,-1,-1,-1],"split_conditions":[7.643228E-1,7.5095093E-1,-1.6940911E0,3.711809E-1,1.9291182E-1,1.7193216E0,-1.6437709E0,3.176435E-1,6.268888E-1,-3.1657895E-1,9.036829E-1,1E0,1E0,1.230192E0,7.772578E-1,-2.0955653E-4,1.8865094E-2,-1.1270503E-2,3.9932826E-3,-8.5557416E-2,6.761482E-2,-1.8291536E-1,-8.684174E-2,-1.4210269E-1,-2.2484742E-2,6.186053E-2,-1.3471611E-1,7.624649E-2,8.032159E-4,3.9138775E-2,1.9938457E-3],"split_indices":[0,0,1,0,1,0,1,0,0,1,1,3,5,0,0,0,0,0,0,0,0,0,0,0,0,0,0,0,0,0,0],"split_type":[0,0,0,0,0,0,0,0,0,0,0,0,0,0,0,0,0,0,0,0,0,0,0,0,0,0,0,0,0,0,0],"sum_hessian":[3.5756504E4,2.758857E4,8.167934E3,2.747815E4,1.1041825E2,6.3326492E1,8.104608E3,2.3052121E4,4.4260303E3,7.36512E1,3.676705E1,4.391201E1,1.9414484E1,1.4250154E2,7.962106E3,2.2298465E4,7.536555E2,3.0217737E3,1.4042565E3,4.490844E1,2.8742764E1,1.2994591E1,2.377246E1,2.4448412E1,1.9463596E1,1.6704863E1,2.7096202E0,8.622634E1,5.6275204E1,1.6392036E2,7.7981855E3],"tree_param":{"num_deleted":"0","num_feature":"9","num_nodes":"31","size_leaf_vector":"1"}},{"base_weights":[-8.873897E-5,-2.9195007E-2,9.424593E-3,-4.0138212E-1,-2.2072138E-2,-1.2926585E-3,7.293952E-2,-3.2562333E-1,-1.5474622E-1,-6.520304E-3,-1.8156818E-1,1.3163132E-3,-3.245906E-1,1.0220818E-1,-5.2126467E-2,-4.4419166E-2,1.5072575E-1,-1.0418167E-3,7.302116E-2,-4.551776E-2,-3.8316664E-3,2.5163644E-3,-2.3548896E-3,-4.4580296E-2,1.0122315E-1,8.181429E-3,4.1603755E-2,-1.9512493E-2,1.6381199E-2],"categories":[],"categories_nodes":[],"categories_segments":[],"categories_sizes":[],"default_left":[0,0,0,0,0,0,0,0,0,0,0,0,0,0,0,0,0,0,0,0,0,0,0,0,0,0,0,0,0],"id":19,"left_children":[1,3,5,7,9,11,13,15,-1,17,19,21,23,25,27,-1,-1,-1,-1,-1,-1,-1,-1,-1,-1,-1,-1,-1,-1],"loss_changes":[9.900938E0,2.334175E1,1.8344145E1,1.3852255E1,2.143926E1,1.9450014E1,1.4247337E1,3.464971E1,0E0,2.262739E1,3.0080462E1,1.3564919E1,3.0363152E1,2.014709E1,2.2836414E1,0E0,0E0,0E0,0E0,0E0,0E0,0E0,0E0,0E0,0E0,0E0,0E0,0E0,0E0],"parents":[2147483647,0,0,1,1,2,2,3,3,4,4,5,5,6,6,7,7,9,9,10,10,11,11,12,12,13,13,14,14],"right_children":[2,4,6,8,10,12,14,16,-1,18,20,22,24,26,28,-1,-1,-1,-1,-1,-1,-1,-1,-1,-1,-1,-1,-1,-1],"split_conditions":[1E0,-1.9695873E0,1.0934932E0,1.4949437E0,1.3880136E0,1.0560071E0,1.0420631E0,1.4572037E0,-1.5474622E-1,1.3754336E0,1.5138139E0,-1.8009381E-1,1.5767139E0,8.9110285E-1,1.4823638E0,-4.4419166E-2,1.5072575E-1,-1.0418167E-3,7.302116E-2,-4.551776E-2,-3.8316664E-3,2.5163644E-3,-2.3548896E-3,-4.4580296E-2,1.0122315E-1,8.181429E-3,4.1603755E-2,-1.9512493E-2,1.6381199E-2],"split_indices":[7,0,0,1,1,0,1,1,0,1,1,0,1,1,1,0,0,0,0,0,0,0,0,0,0,0,0,0,0],"split_type":[0,0,0,0,0,0,0,0,0,0,0,0,0,0,0,0,0,0,0,0,0,0,0,0,0,0,0,0,0],"sum_hessian":[3.5754684E4,8.807096E3,2.6947588E4,1.6434453E2,8.642751E3,2.3057875E4,3.8897131E3,1.5535902E2,8.985502E0,7.8758486E3,7.6690234E2,2.287428E4,1.8359648E2,3.1522E3,7.375132E2,1.4663116E2,8.7278595E0,7.83538E3,4.0469154E1,2.6279266E2,5.041097E2,1.1676119E4,1.1198159E4,1.6894446E2,1.4652015E1,2.9610403E3,1.9115967E2,4.4375006E2,2.9376315E2],"tree_param":{"num_deleted":"0","num_feature":"9","num_nodes":"29","size_leaf_vector":"1"}},{"base_weights":[-7.869928E-5,-5.9903514E-2,4.2017354E-3,-3.203259E-2,-3.4977114E-1,2.6500046E-1,1.84621E-3,1.9154318E-2,-1.5881014E-1,-4.37859E-1,6.4746225E-1,5.264575E-2,4.4330856E-1,-1.2405795E-2,3.3764936E-2,-1.4831728E-1,2.5566805E-3,-1.7527217E-2,1.1120223E-1,1.5003562E-1,-4.7376264E-2,1.2155645E-1,-2.2137607E-2,1.9836687E-2,-1.0724046E-1,4.7634512E-2,-1.327378E-1,-1.0558837E-3,-3.590538E-2,1.309297E-2,1.8586721E-3],"categories":[],"categories_nodes":[],"categories_segments":[],"categories_sizes":[],"default_left":[0,0,0,0,0,0,0,0,0,0,0,0,0,0,0,0,0,0,0,0,0,0,0,0,0,0,0,0,0,0,0],"id":20,"left_children":[1,3,5,7,9,11,13,15,17,19,21,23,25,27,29,-1,-1,-1,-1,-1,-1,-1,-1,-1,-1,-1,-1,-1,-1,-1,-1],"loss_changes":[9.155648E0,1.9275818E1,2.0497023E1,1.4143537E1,1.8670004E1,1.1285238E1,1.504353E1,1.5000729E1,1.330891E1,1.4135696E1,8.8533535E0,2.274676E1,1.0121071E1,1.463329E1,1.5052064E1,0E0,0E0,0E0,0E0,0E0,0E0,0E0,0E0,0E0,0E0,0E0,0E0,0E0,0E0,0E0,0E0],"parents":[2147483647,0,0,1,1,2,2,3,3,4,4,5,5,6,6,7,7,8,8,9,9,10,10,11,11,12,12,13,13,14,14],"right_children":[2,4,6,8,10,12,14,16,18,20,22,24,26,28,30,-1,-1,-1,-1,-1,-1,-1,-1,-1,-1,-1,-1,-1,-1,-1,-1],"split_conditions":[-1.4802307E0,-1.5053908E0,-1.4550706E0,1.5218705E0,1.5016963E0,-4.795249E-3,1.5218705E0,-2.4148262E0,2.4137685E0,-2.6450312E0,1.6009146E0,-2.5132748E-1,2.0567918E0,1.7088041E0,-1.1489162E0,-1.4831728E-1,2.5566805E-3,-1.7527217E-2,1.1120223E-1,1.5003562E-1,-4.7376264E-2,1.2155645E-1,-2.2137607E-2,1.9836687E-2,-1.0724046E-1,4.7634512E-2,-1.327378E-1,-1.0558837E-3,-3.590538E-2,1.309297E-2,1.8586721E-3],"split_indices":[1,1,1,2,0,0,2,0,0,0,0,0,0,1,0,0,0,0,0,0,0,0,0,0,0,0,0,0,0,0,0],"split_type":[0,0,0,0,0,0,0,0,0,0,0,0,0,0,0,0,0,0,0,0,0,0,0,0,0,0,0,0,0,0,0],"sum_hessian":[3.575162E4,2.386339E3,3.336528E4,2.178031E3,2.0830827E2,2.976586E2,3.3067625E4,1.5521809E3,6.2585E2,1.9191676E2,1.6391508E1,1.3644989E2,1.6120872E2,2.2860715E4,1.0206908E4,5.61832E0,1.5465626E3,6.186976E2,7.152366E0,2.7485967E0,1.8916817E2,9.669743E0,6.721766E0,1.2153222E2,1.4917666E1,1.5897366E2,2.2350647E0,2.2740584E4,1.2013251E2,1.3779846E3,8.828924E3],"tree_param":{"num_deleted":"0","num_feature":"9","num_nodes":"31","size_leaf_vector":"1"}},{"base_weights":[-7.3985735E-5,7.2487034E-3,-3.486466E-2,3.1607768E-3,8.583286E-2,-1.5537813E-1,-2.2582576E-2,2.6347963E-2,-1.5710555E-2,2.1329932E-1,-5.035168E-2,-2.824186E-2,-4.218915E-1,5.608001E-1,-2.544287E-2,1.5634334E-3,2.5495408E-2,-1.9783696E-2,7.618174E-5,1.6916145E-2,7.195536E-2,1.3637738E-2,-2.0429462E-2,-6.8242475E-2,5.140431E-3,-2.050311E-2,-9.419456E-2,1.6417286E-1,-6.2269005E-3,-8.667057E-3,7.020285E-4],"categories":[],"categories_nodes":[],"categories_segments":[],"categories_sizes":[],"default_left":[0,0,0,0,0,0,0,0,0,0,0,0,0,0,0,0,0,0,0,0,0,0,0,0,0,0,0,0,0,0,0],"id":21,"left_children":[1,3,5,7,9,11,13,15,17,19,21,23,25,27,29,-1,-1,-1,-1,-1,-1,-1,-1,-1,-1,-1,-1,-1,-1,-1,-1],"loss_changes":[9.107375E0,9.486992E0,9.19713E0,1.2284576E1,2.535966E1,1.9462254E1,9.429192E0,3.084784E1,4.6434105E1,1.6736977E1,2.0345407E1,2.0365116E1,2.07331E1,1.8671848E1,1.1162585E1,0E0,0E0,0E0,0E0,0E0,0E0,0E0,0E0,0E0,0E0,0E0,0E0,0E0,0E0,0E0,0E0],"parents":[2147483647,0,0,1,1,2,2,3,3,4,4,5,5,6,6,7,7,8,8,9,9,10,10,11,11,12,12,13,13,14,14],"right_children":[2,4,6,8,10,12,14,16,18,20,22,24,26,28,30,-1,-1,-1,-1,-1,-1,-1,-1,-1,-1,-1,-1,-1,-1,-1,-1],"split_conditions":[1E0,1.6748376E0,-1.292996E0,-2.0156011E-1,4.211539E-3,-1.5326133E0,-1.2708681E0,1.589294E0,-8.353435E-2,-1.0271862E-1,1.9238983E0,-1.1971803E0,1.5218705E0,-1.2349204E0,-4.801192E-1,1.5634334E-3,2.5495408E-2,-1.9783696E-2,7.618174E-5,1.6916145E-2,7.195536E-2,1.3637738E-2,-2.0429462E-2,-6.8242475E-2,5.140431E-3,-2.050311E-2,-9.419456E-2,1.6417286E-1,-6.2269005E-3,-8.667057E-3,7.020285E-4],"split_indices":[5,0,0,0,1,0,0,1,0,1,0,1,2,1,1,0,0,0,0,0,0,0,0,0,0,0,0,0,0,0,0],"split_type":[0,0,0,0,0,0,0,0,0,0,0,0,0,0,0,0,0,0,0,0,0,0,0,0,0,0,0,0,0,0,0],"sum_hessian":[3.5746668E4,2.9531676E4,6.2149917E3,2.8072398E4,1.4592784E3,5.7373865E2,5.641253E3,1.2595689E4,1.5476708E4,7.534735E2,7.0580493E2,3.8918814E2,1.8455049E2,2.6572098E1,5.614681E3,1.2032839E4,5.628508E2,1.282771E3,1.4193937E4,6.9427704E2,5.9196526E1,3.1899084E2,3.868141E2,4.141914E1,3.4776898E2,1.3122461E2,5.3325874E1,9.118319E0,1.745378E1,1.944865E3,3.6698162E3],"tree_param":{"num_deleted":"0","num_feature":"9","num_nodes":"31","size_leaf_vector":"1"}},{"base_weights":[-6.619121E-5,-2.6306465E-2,8.5096415E-3,-3.6697617E-1,-1.9822646E-2,-7.799358E-4,6.3577205E-2,8.6777076E-2,-4.3475163E-1,5.6582734E-2,-4.766191E-2,3.9506303E-3,-1.5498057E-1,7.3165216E-2,-2.3838857E-1,1.0156259E-2,-5.7968598E-2,2.6278699E-2,2.7406083E-3,-2.5373945E-2,-1.7480219E-3,9.4505835E-5,1.8984152E-2,-1.3577565E-2,-1.5881653E-1,6.328502E-3,7.6867126E-2,6.1594015E-3,-9.168105E-2],"categories":[],"categories_nodes":[],"categories_segments":[],"categories_sizes":[],"default_left":[0,0,0,0,0,0,0,0,0,0,0,0,0,0,0,0,0,0,0,0,0,0,0,0,0,0,0,0,0],"id":22,"left_children":[1,3,5,7,9,11,13,-1,15,17,19,21,23,25,27,-1,-1,-1,-1,-1,-1,-1,-1,-1,-1,-1,-1,-1,-1],"loss_changes":[8.043946E0,1.9441174E1,1.3781805E1,1.4134447E1,1.838362E1,1.6816887E1,1.1276432E1,0E0,1.2223957E1,1.38798065E1,3.9392933E1,1.249699E1,1.8671457E1,2.5856884E1,2.4460186E1,0E0,0E0,0E0,0E0,0E0,0E0,0E0,0E0,0E0,0E0,0E0,0E0,0E0,0E0],"parents":[2147483647,0,0,1,1,2,2,3,3,4,4,5,5,6,6,8,8,9,9,10,10,11,11,12,12,13,13,14,14],"right_children":[2,4,6,8,10,12,14,-1,16,18,20,22,24,26,28,-1,-1,-1,-1,-1,-1,-1,-1,-1,-1,-1,-1,-1,-1],"split_conditions":[1E0,-1.9695873E0,1.0934932E0,-1.656351E0,-6.0828686E-1,9.7474945E-1,1.620744E0,8.6777076E-2,-2.6450312E0,-1.3041104E0,-1.2349204E0,9.2950815E-1,1.6459041E0,1.589294E0,1E0,1.0156259E-2,-5.7968598E-2,2.6278699E-2,2.7406083E-3,-2.5373945E-2,-1.7480219E-3,9.4505835E-5,1.8984152E-2,-1.3577565E-2,-1.5881653E-1,6.328502E-3,7.6867126E-2,6.1594015E-3,-9.168105E-2],"split_indices":[7,0,0,1,0,0,1,0,0,1,1,0,1,1,3,0,0,0,0,0,0,0,0,0,0,0,0,0,0],"split_type":[0,0,0,0,0,0,0,0,0,0,0,0,0,0,0,0,0,0,0,0,0,0,0,0,0,0,0,0,0],"sum_hessian":[3.574376E4,8.803821E3,2.693994E4,1.6339139E2,8.64043E3,2.305216E4,3.8877793E3,7.887721E0,1.5550366E2,2.3072117E3,6.333218E3,2.236696E4,6.8519916E2,3.768868E3,1.1891128E2,3.3146774E1,1.2235689E2,2.8499808E2,2.0222136E3,8.08111E2,5.525107E3,2.2012064E4,3.5489645E2,6.77219E2,7.9801197E0,3.717154E3,5.171401E1,8.308307E1,3.5828213E1],"tree_param":{"num_deleted":"0","num_feature":"9","num_nodes":"29","size_leaf_vector":"1"}},{"base_weights":[-6.497102E-5,6.5041003E-3,-3.1282425E-2,8.10361E-3,-1.8572755E-1,-6.074055E-2,1.0038976E-2,6.3527953E-3,2.1467549E-1,2.6496407E-1,-2.5111145E-1,-4.19797E-2,-7.4172527E-1,3.1679448E-1,-5.978837E-2,-7.5120823E-3,1.0481648E-3,6.950977E-2,-1.0042447E-2,-1.4248118E-1,5.547298E-2,-7.860781E-3,-6.366911E-2,1.2501092E-3,-1.1038116E-2,-1.3657872E-1,-1.778174E-2,6.84214E-2,1.5759556E-2,-1.639967E-1,-5.0127017E-3],"categories":[],"categories_nodes":[],"categories_segments":[],"categories_sizes":[],"default_left":[0,0,0,0,0,0,0,0,0,0,0,0,0,0,0,0,0,0,0,0,0,0,0,0,0,0,0,0,0,0,0],"id":23,"left_children":[1,3,5,7,9,11,13,15,17,19,21,23,25,27,29,-1,-1,-1,-1,-1,-1,-1,-1,-1,-1,-1,-1,-1,-1,-1,-1],"loss_changes":[7.329707E0,9.080914E0,7.564275E0,1.0590509E1,7.2483463E0,4.6316364E1,5.5431934E1,9.769956E0,3.732464E1,1.6147432E1,1.4140803E1,1.3161894E1,3.396427E1,2.7959743E1,3.210201E1,0E0,0E0,0E0,0E0,0E0,0E0,0E0,0E0,0E0,0E0,0E0,0E0,0E0,0E0,0E0,0E0],"parents":[2147483647,0,0,1,1,2,2,3,3,4,4,5,5,6,6,7,7,8,8,9,9,10,10,11,11,12,12,13,13,14,14],"right_children":[2,4,6,8,10,12,14,16,18,20,22,24,26,28,30,-1,-1,-1,-1,-1,-1,-1,-1,-1,-1,-1,-1,-1,-1,-1,-1],"split_conditions":[1E0,1.6962241E0,2.5699884E-1,1.671064E0,-1.3878921E0,2.0467342E-1,4.3640834E-1,-1.6395171E0,-5.360993E-1,1E0,1E0,1.3630174E-1,2E0,1E0,-1.6940911E0,-7.5120823E-3,1.0481648E-3,6.950977E-2,-1.0042447E-2,-1.4248118E-1,5.547298E-2,-7.860781E-3,-6.366911E-2,1.2501092E-3,-1.1038116E-2,-1.3657872E-1,-1.778174E-2,6.84214E-2,1.5759556E-2,-1.639967E-1,-5.0127017E-3],"split_indices":[5,1,0,1,0,0,0,0,0,7,3,1,5,7,1,0,0,0,0,0,0,0,0,0,0,0,0,0,0,0,0],"split_type":[0,0,0,0,0,0,0,0,0,0,0,0,0,0,0,0,0,0,0,0,0,0,0,0,0,0,0,0,0,0,0],"sum_hessian":[3.5740523E4,2.9527799E4,6.2127266E3,2.9285082E4,2.4271576E2,3.626743E3,2.585984E3,2.9039982E4,2.4509976E2,3.0364012E1,2.1235175E2,3.5305398E3,9.620326E1,4.788466E2,2.1071372E3,1.399852E3,2.764013E4,9.660438E1,1.4849538E2,3.8713024E0,2.649271E1,1.4754553E2,6.480622E1,1.9657026E3,1.564837E3,4.499096E1,5.1212307E1,1.4376035E2,3.3508624E2,1.1779479E1,2.0953577E3],"tree_param":{"num_deleted":"0","num_feature":"9","num_nodes":"31","size_leaf_vector":"1"}},{"base_weights":[-7.16371E-5,-2.4373129E-2,7.868986E-3,-1.02903005E-2,-1.6784006E-1,-5.434192E-4,5.7745043E-2,-1.3688814E-2,6.400273E-1,-5.743915E-1,-1.0334856E-1,1.6761963E-3,-2.7625462E-1,8.299592E-2,-5.0187662E-2,-1.2495073E-2,4.3968667E-4,2.6366806E-2,1.4296265E-1,-7.191252E-2,-6.641892E-3,-4.155946E-3,-5.1481318E-2,-2.1547456E-3,2.3232321E-3,-6.2256206E-2,1.9043406E-2,1.9451667E-2,3.3991996E-3,-7.688045E-2,-1.0637303E-3],"categories":[],"categories_nodes":[],"categories_segments":[],"categories_sizes":[],"default_left":[0,0,0,0,0,0,0,0,0,0,0,0,0,0,0,0,0,0,0,0,0,0,0,0,0,0,0,0,0,0,0],"id":24,"left_children":[1,3,5,7,9,11,13,15,17,19,21,23,25,27,29,-1,-1,-1,-1,-1,-1,-1,-1,-1,-1,-1,-1,-1,-1,-1,-1],"loss_changes":[6.8966556E0,1.778204E1,1.1302487E1,1.7725685E1,2.0567635E1,1.4107014E1,1.059984E1,1.6049433E1,1.2013903E1,7.8551064E0,1.7272654E1,1.1448418E1,2.9871712E1,1.7213661E1,2.0958988E1,0E0,0E0,0E0,0E0,0E0,0E0,0E0,0E0,0E0,0E0,0E0,0E0,0E0,0E0,0E0,0E0],"parents":[2147483647,0,0,1,1,2,2,3,3,4,4,5,5,6,6,7,7,8,8,9,9,10,10,11,11,12,12,13,13,14,14],"right_children":[2,4,6,8,10,12,14,16,18,20,22,24,26,28,30,-1,-1,-1,-1,-1,-1,-1,-1,-1,-1,-1,-1,-1,-1,-1,-1],"split_conditions":[1E0,1.3880136E0,1.0934932E0,1.3754336E0,1.4446237E0,1.0560071E0,1.0420631E0,-1.2537904E0,1E0,2E0,2E0,-3.3528518E-2,1E0,1.2941934E0,1.0923831E0,-1.2495073E-2,4.3968667E-4,2.6366806E-2,1.4296265E-1,-7.191252E-2,-6.641892E-3,-4.155946E-3,-5.1481318E-2,-2.1547456E-3,2.3232321E-3,-6.2256206E-2,1.9043406E-2,1.9451667E-2,3.3991996E-3,-7.688045E-2,-1.0637303E-3],"split_indices":[7,1,0,1,1,0,1,1,5,3,3,1,3,0,1,0,0,0,0,0,0,0,0,0,0,0,0,0,0,0,0],"split_type":[0,0,0,0,0,0,0,0,0,0,0,0,0,0,0,0,0,0,0,0,0,0,0,0,0,0,0,0,0,0,0],"sum_hessian":[3.5737715E4,8.801013E3,2.6936701E4,8.015297E3,7.8571625E2,2.3049943E4,3.8867573E3,7.974601E3,4.0695755E1,1.06491615E2,6.792246E2,2.2866848E4,1.8309586E2,3.1500366E3,7.367207E2,1.114201E3,6.8604E3,2.846294E1,1.2232816E1,8.255423E1,2.3937384E1,5.9150073E2,8.772389E1,1.1007661E4,1.1859187E4,1.04911804E2,7.818405E1,9.6071625E2,2.1893203E3,3.7469727E1,6.99251E2],"tree_param":{"num_deleted":"0","num_feature":"9","num_nodes":"31","size_leaf_vector":"1"}},{"base_weights":[-6.811756E-5,-9.237352E-3,2.0595081E-2,-7.7466415E-3,-3.166252E-1,-1.7060077E-1,3.3174146E-2,-1.0710517E-2,2.3468326E-1,-4.163688E-1,8.89386E-1,-5.948952E-2,-4.162532E-1,5.3417463E-2,-3.6426786E-2,-5.6842505E-3,3.9080685E-5,5.0058067E-2,-7.633377E-3,-1.0634187E-2,-1.4653938E-1,1.713563E-1,-1.02583006E-1,-1.2950006E-2,4.3504868E-2,-5.3780384E-2,1.2734042E-1,-3.953067E-2,5.9209955E-3,-1.0487821E-1,-1.0073398E-3],"categories":[],"categories_nodes":[],"categories_segments":[],"categories_sizes":[],"default_left":[0,0,0,0,0,0,0,0,0,0,0,0,0,0,0,0,0,0,0,0,0,0,0,0,0,0,0,0,0,0,0],"id":25,"left_children":[1,3,5,7,9,11,13,15,17,19,21,23,25,27,29,-1,-1,-1,-1,-1,-1,-1,-1,-1,-1,-1,-1,-1,-1,-1,-1],"loss_changes":[6.7707267E0,1.1339647E1,2.6422195E1,1.7702648E1,1.47372465E1,1.8486246E1,1.4523358E1,1.2463725E1,2.464692E1,3.594158E1,1.6662054E1,1.6264671E1,4.403004E1,2.0777502E1,6.1959816E1,0E0,0E0,0E0,0E0,0E0,0E0,0E0,0E0,0E0,0E0,0E0,0E0,0E0,0E0,0E0,0E0],"parents":[2147483647,0,0,1,1,2,2,3,3,4,4,5,5,6,6,7,7,8,8,9,9,10,10,11,11,12,12,13,13,14,14],"right_children":[2,4,6,8,10,12,14,16,18,20,22,24,26,28,30,-1,-1,-1,-1,-1,-1,-1,-1,-1,-1,-1,-1,-1,-1,-1,-1],"split_conditions":[1.5218705E0,1.7088041E0,-1.4802307E0,1.671064E0,3E0,-1.5745808E0,9.85453E-1,-8.485478E-1,-1.1295986E-1,1E0,-4.1618085E-1,-1.5871608E0,2.0567918E0,-2.147478E0,1.0106131E0,-5.6842505E-3,3.9080685E-5,5.0058067E-2,-7.633377E-3,-1.0634187E-2,-1.4653938E-1,1.713563E-1,-1.02583006E-1,-1.2950006E-2,4.3504868E-2,-5.3780384E-2,1.2734042E-1,-3.953067E-2,5.9209955E-3,-1.0487821E-1,-1.0073398E-3],"split_indices":[2,1,1,1,3,1,1,0,0,3,0,1,0,0,1,0,0,0,0,0,0,0,0,0,0,0,0,0,0,0,0],"split_type":[0,0,0,0,0,0,0,0,0,0,0,0,0,0,0,0,0,0,0,0,0,0,0,0,0,0,0,0,0,0,0],"sum_hessian":[3.573389E4,2.475118E4,1.0982711E4,2.4632746E4,1.1843394E2,6.771893E2,1.0305521E4,2.4336174E4,2.9657095E2,1.0999178E2,8.442155E0,4.671393E2,2.1004997E2,7.983706E3,2.3218154E3,4.719594E3,1.961658E4,1.595541E2,1.3701688E2,8.575058E1,2.4241201E1,5.9758506E0,2.4663045E0,4.098553E2,5.7284046E1,1.9658943E2,1.3460546E1,1.0088968E2,7.8828164E3,5.7923145E1,2.2638923E3],"tree_param":{"num_deleted":"0","num_feature":"9","num_nodes":"31","size_leaf_vector":"1"}},{"base_weights":[-6.917642E-5,5.912188E-3,-2.849887E-2,2.4499983E-2,-7.916215E-3,-2.030694E-2,-1.6529296E-1,1.5756968E-2,2.336319E-1,-1.4459454E-1,9.639334E-3,-4.3689735E-2,5.5184957E-2,3.726393E-2,-4.6787518E-1,-3.6144175E-3,5.6395084E-3,3.925317E-2,7.763761E-5,-1.0743445E-2,-5.3947575E-2,1.6344565E-3,-2.239487E-2,7.791795E-4,-1.05853025E-2,-1.3186737E-2,2.0193553E-2,-1.5464303E-1,8.858505E-3,4.330082E-2,-6.569451E-2],"categories":[],"categories_nodes":[],"categories_segments":[],"categories_sizes":[],"default_left":[0,0,0,0,0,0,0,0,0,0,0,0,0,0,0,0,0,0,0,0,0,0,0,0,0,0,0,0,0,0,0],"id":26,"left_children":[1,3,5,7,9,11,13,15,17,19,21,23,25,27,29,-1,-1,-1,-1,-1,-1,-1,-1,-1,-1,-1,-1,-1,-1,-1,-1],"loss_changes":[6.0759454E0,7.58799E0,6.956452E0,2.3022161E1,4.0619057E1,1.0348258E1,2.151656E1,2.549945E1,1.8695139E1,2.8216412E1,2.3500647E1,1.4323499E1,3.8086025E1,1.7290005E1,2.425541E1,0E0,0E0,0E0,0E0,0E0,0E0,0E0,0E0,0E0,0E0,0E0,0E0,0E0,0E0,0E0,0E0],"parents":[2147483647,0,0,1,1,2,2,3,3,4,4,5,5,6,6,7,7,8,8,9,9,10,10,11,11,12,12,13,13,14,14],"right_children":[2,4,6,8,10,12,14,16,18,20,22,24,26,28,30,-1,-1,-1,-1,-1,-1,-1,-1,-1,-1,-1,-1,-1,-1,-1,-1],"split_conditions":[1E0,-2.0156011E-1,1.5138139E0,-2.4100475E-1,-2.4596378E-2,7.715927E-1,2E0,-1.7190872E-1,1.6775179E-1,1.3754336E0,1.620744E0,9.5940724E-2,-4.795249E-3,1.5263939E0,-1.2292457E0,-3.6144175E-3,5.6395084E-3,3.925317E-2,7.763761E-5,-1.0743445E-2,-5.3947575E-2,1.6344565E-3,-2.239487E-2,7.791795E-4,-1.05853025E-2,-1.3186737E-2,2.0193553E-2,-1.5464303E-1,8.858505E-3,4.330082E-2,-6.569451E-2],"split_indices":[5,0,1,0,0,1,5,1,1,1,1,0,0,1,0,0,0,0,0,0,0,0,0,0,0,0,0,0,0,0,0],"split_type":[0,0,0,0,0,0,0,0,0,0,0,0,0,0,0,0,0,0,0,0,0,0,0,0,0,0,0,0,0,0,0],"sum_hessian":[3.57287E4,2.9518955E4,6.2097437E3,1.2592141E4,1.6926814E4,5.8599673E3,3.497764E2,1.2087868E4,5.0427277E2,1.9258575E3,1.5000957E4,4.47447E3,1.3854973E3,2.1004399E2,1.397324E2,5.3083706E3,6.7794976E3,2.993272E2,2.0494556E2,1.7613762E3,1.6448132E2,1.4583269E4,4.1768808E2,2.4479966E3,2.0264734E3,6.091541E2,7.763432E2,5.6785913E0,2.043654E2,2.4015026E1,1.15717384E2],"tree_param":{"num_deleted":"0","num_feature":"9","num_nodes":"31","size_leaf_vector":"1"}},{"base_weights":[-7.092548E-5,-2.1994244E-2,7.0917616E-3,-2.3252727E-1,-1.3761669E-2,2.6310156E-3,8.951888E-2,-1.657647E-1,-1.5825056E-1,7.044322E-2,-4.223123E-2,-3.920913E-3,6.7755975E-2,-4.6261233E-1,1.2053144E-1,-2.096348E-2,1.1144959E-1,2.7237598E-2,4.140159E-3,-2.9914955E-2,-1.8655956E-3,-1.859992E-4,-5.646627E-2,4.050826E-3,3.6546897E-2,-7.299944E-2,8.857593E-2,3.279563E-2,3.7760937E-3],"categories":[],"categories_nodes":[],"categories_segments":[],"categories_sizes":[],"default_left":[0,0,0,0,0,0,0,0,0,0,0,0,0,0,0,0,0,0,0,0,0,0,0,0,0,0,0,0,0],"id":27,"left_children":[1,3,5,7,9,11,13,15,-1,17,19,21,23,25,27,-1,-1,-1,-1,-1,-1,-1,-1,-1,-1,-1,-1,-1,-1],"loss_changes":[5.6101375E0,1.5245721E1,9.901041E0,2.9572058E1,2.030301E1,1.0901073E1,2.3727612E1,1.8012169E1,0E0,1.2538556E1,3.832852E1,2.6824732E1,1.892913E1,2.7227856E1,2.2473946E1,0E0,0E0,0E0,0E0,0E0,0E0,0E0,0E0,0E0,0E0,0E0,0E0,0E0,0E0],"parents":[2147483647,0,0,1,1,2,2,3,3,4,4,5,5,6,6,7,7,9,9,10,10,11,11,12,12,13,13,14,14],"right_children":[2,4,6,8,10,12,14,16,-1,18,20,22,24,26,28,-1,-1,-1,-1,-1,-1,-1,-1,-1,-1,-1,-1,-1,-1],"split_conditions":[1E0,-1.7150656E0,3E0,1.4949437E0,-6.0828686E-1,1.3642931E0,-1.4802307E0,1.4572037E0,-1.5825056E-1,-1.3041104E0,-4.1618085E-1,1.3383315E0,1.4823638E0,2E0,-6.0591936E-1,-2.096348E-2,1.1144959E-1,2.7237598E-2,4.140159E-3,-2.9914955E-2,-1.8655956E-3,-1.859992E-4,-5.646627E-2,4.050826E-3,3.6546897E-2,-7.299944E-2,8.857593E-2,3.279563E-2,3.7760937E-3],"split_indices":[7,0,3,1,0,0,1,1,0,1,0,0,1,5,1,0,0,0,0,0,0,0,0,0,0,0,0,0,0],"split_type":[0,0,0,0,0,0,0,0,0,0,0,0,0,0,0,0,0,0,0,0,0,0,0,0,0,0,0,0,0],"sum_hessian":[3.572457E4,8.796982E3,2.6927588E4,3.300223E2,8.46696E3,2.5546129E4,1.3814595E3,3.1554022E2,1.4482106E1,2.1389822E3,6.3279775E3,2.321183E4,2.334298E3,7.272819E1,1.3087313E3,3.0589453E2,9.64569E0,2.67892E2,1.8710902E3,5.308792E2,5.797098E3,2.312783E4,8.3999504E1,2.1396096E3,1.946883E2,6.107552E1,1.1652665E1,3.7243585E2,9.362954E2],"tree_param":{"num_deleted":"0","num_feature":"9","num_nodes":"29","size_leaf_vector":"1"}},{"base_weights":[-6.697957E-5,-8.341186E-3,1.8582927E-2,3.2692008E-2,-1.7536832E-2,-1.514541E-1,2.9724212E-2,2.042121E-1,2.924512E-4,-2.3239648E-1,-7.7785286E-3,1.1021062E-1,-2.4725606E-1,1.2206079E-1,1.5314951E-2,1.5646381E-2,6.1291277E-2,-3.954212E-2,9.780927E-4,-1.8620266E-2,-7.5148754E-2,3.6307063E-2,-1.1989779E-3,1.6333455E-2,-1.4427756E-1,-2.9164916E-2,7.97462E-2,-3.7805554E-3,2.4041332E-2,-5.5563387E-2,1.9276924E-3],"categories":[],"categories_nodes":[],"categories_segments":[],"categories_sizes":[],"default_left":[0,0,0,0,0,0,0,0,0,0,0,0,0,0,0,0,0,0,0,0,0,0,0,0,0,0,0,0,0,0,0],"id":28,"left_children":[1,3,5,7,9,11,13,15,17,19,21,23,25,27,29,-1,-1,-1,-1,-1,-1,-1,-1,-1,-1,-1,-1,-1,-1,-1,-1],"loss_changes":[5.5127316E0,9.337773E0,2.0802792E1,2.5177622E1,4.238438E1,1.6955145E1,1.3708114E1,1.3951759E1,1.431616E1,2.091896E1,3.020645E1,1.5223417E1,2.3171793E1,2.6324003E1,2.0176195E1,0E0,0E0,0E0,0E0,0E0,0E0,0E0,0E0,0E0,0E0,0E0,0E0,0E0,0E0,0E0,0E0],"parents":[2147483647,0,0,1,1,2,2,3,3,4,4,5,5,6,6,7,7,8,8,9,9,10,10,11,11,12,12,13,13,14,14],"right_children":[2,4,6,8,10,12,14,16,18,20,22,24,26,28,30,-1,-1,-1,-1,-1,-1,-1,-1,-1,-1,-1,-1,-1,-1,-1,-1],"split_conditions":[1.5218705E0,-1.0902501E0,-1.4802307E0,-1.0774761E0,-9.518699E-1,-1.668931E0,-1.1489162E0,-1.1312258E0,-9.820082E-1,1.3166217E0,-9.267099E-1,3E0,2.0567918E0,-1.566655E0,-1.1110852E0,1.5646381E-2,6.1291277E-2,-3.954212E-2,9.780927E-4,-1.8620266E-2,-7.5148754E-2,3.6307063E-2,-1.1989779E-3,1.6333455E-2,-1.4427756E-1,-2.9164916E-2,7.97462E-2,-3.7805554E-3,2.4041332E-2,-5.5563387E-2,1.9276924E-3],"split_indices":[2,1,1,0,1,1,0,0,0,0,1,3,0,0,0,0,0,0,0,0,0,0,0,0,0,0,0,0,0,0,0],"split_type":[0,0,0,0,0,0,0,0,0,0,0,0,0,0,0,0,0,0,0,0,0,0,0,0,0,0,0,0,0,0,0],"sum_hessian":[3.572231E4,2.474466E4,1.0977647E4,4.529662E3,2.0214998E4,6.7427936E2,1.0303368E4,7.1884796E2,3.8108142E3,8.772294E2,1.9337768E4,1.8066823E2,4.936111E2,1.3898085E3,8.91356E3,6.448888E2,7.395918E1,8.828405E1,3.72253E3,8.0679175E2,7.043758E1,2.1617139E2,1.9121596E4,1.7555765E2,5.1105814E0,4.7418256E2,1.9428564E1,5.915051E2,7.983033E2,6.046785E1,8.853092E3],"tree_param":{"num_deleted":"0","num_feature":"9","num_nodes":"31","size_leaf_vector":"1"}},{"base_weights":[-6.555655E-5,-7.007089E-3,2.0581963E-2,5.271479E-3,-8.338863E-2,5.425973E-2,-4.4371277E-2,-6.9682775E-3,9.0544656E-2,-1.4578602E-1,5.0002158E-2,-1.3018952E-2,1.161742E-1,-4.3934342E-1,1.2190087E-2,9.916039E-4,-6.2835454E-3,1.0271463E-2,-8.01015E-2,-1.3643744E-2,-1.7848481E-1,1.1733417E-2,-2.7059132E-2,-7.69161E-4,-6.0709525E-2,4.78602E-2,8.560469E-3,-3.6334533E-2,-1.8450396E-1,1.7491424E-2,-6.586937E-3],"categories":[],"categories_nodes":[],"categories_segments":[],"categories_sizes":[],"default_left":[0,0,0,0,0,0,0,0,0,0,0,0,0,0,0,0,0,0,0,0,0,0,0,0,0,0,0,0,0,0,0],"id":29,"left_children":[1,3,5,7,9,11,13,15,17,19,21,23,25,27,29,-1,-1,-1,-1,-1,-1,-1,-1,-1,-1,-1,-1,-1,-1,-1,-1],"loss_changes":[5.1196747E0,2.5072283E1,1.9662336E1,2.4039457E1,3.0822765E1,2.4657804E1,6.857499E1,1.8999962E1,3.1450441E1,3.8411053E1,2.5518053E1,8.975847E0,3.411136E1,4.040673E1,3.4127426E1,0E0,0E0,0E0,0E0,0E0,0E0,0E0,0E0,0E0,0E0,0E0,0E0,0E0,0E0,0E0,0E0],"parents":[2147483647,0,0,1,1,2,2,3,3,4,4,5,5,6,6,7,7,8,8,9,9,10,10,11,11,12,12,13,13,14,14],"right_children":[2,4,6,8,10,12,14,16,18,20,22,24,26,28,30,-1,-1,-1,-1,-1,-1,-1,-1,-1,-1,-1,-1,-1,-1,-1,-1],"split_conditions":[6.870741E-1,3.711809E-1,5.199923E-1,1.6517648E-1,7.024026E-1,-6.0591936E-1,6.8353254E-1,-1.8009381E-1,1.658484E0,6.8353254E-1,1.5138139E0,-6.184994E-1,7.3803854E-1,2.157469E0,1.0106131E0,9.916039E-4,-6.2835454E-3,1.0271463E-2,-8.01015E-2,-1.3643744E-2,-1.7848481E-1,1.1733417E-2,-2.7059132E-2,-7.69161E-4,-6.0709525E-2,4.78602E-2,8.560469E-3,-3.6334533E-2,-1.8450396E-1,1.7491424E-2,-6.586937E-3],"split_indices":[0,0,1,0,1,1,1,0,1,1,1,1,0,0,1,0,0,0,0,0,0,0,0,0,0,0,0,0,0,0,0],"split_type":[0,0,0,0,0,0,0,0,0,0,0,0,0,0,0,0,0,0,0,0,0,0,0,0,0,0,0,0,0,0,0],"sum_hessian":[3.571863E4,2.673215E4,8.986478E3,2.3030809E4,3.7013425E3,5.918134E3,3.0683433E3,2.01408E4,2.8900083E3,2.521667E3,1.1796755E3,2.8365825E3,3.0815515E3,3.8350842E2,2.684835E3,1.5467113E4,4.6736865E3,2.8519631E3,3.8045074E1,2.508443E3,1.3223951E1,9.754439E2,2.0423169E2,2.8123755E3,2.4206856E1,2.385601E2,2.8429912E3,3.6503168E2,1.847673E1,8.699923E2,1.8148425E3],"tree_param":{"num_deleted":"0","num_feature":"9","num_nodes":"31","size_leaf_vector":"1"}},{"base_weights":[-7.577013E-5,5.3052055E-3,-2.5656441E-2,1.583989E-2,-1.4232066E-2,-1.3354008E-1,-1.518477E-2,1.2346618E-2,5.17217E-1,3.8933586E-2,-5.0712008E-2,-1.0381016E-2,-4.305627E-1,1.2814122E-2,-6.9564976E-2,5.7975476E-4,1.2439767E-2,6.229139E-2,-7.7287756E-2,5.161154E-4,2.2713663E-2,-4.2453192E-2,-3.6025953E-3,-1.7047254E-2,2.986053E-2,-2.0964243E-2,-9.536769E-2,1.4282497E-2,-1.8971105E-3,-3.302449E-2,-4.3333796E-4],"categories":[],"categories_nodes":[],"categories_segments":[],"categories_sizes":[],"default_left":[0,0,0,0,0,0,0,0,0,0,0,0,0,0,0,0,0,0,0,0,0,0,0,0,0,0,0,0,0,0,0],"id":30,"left_children":[1,3,5,7,9,11,13,15,17,19,21,23,25,27,29,-1,-1,-1,-1,-1,-1,-1,-1,-1,-1,-1,-1,-1,-1,-1,-1],"loss_changes":[4.9161816E0,6.073577E0,7.0103207E0,3.3571453E1,2.0051785E1,2.0080658E1,8.617334E0,1.3971308E1,1.8566177E1,2.6741055E1,3.3645584E1,1.9300592E1,1.8395803E1,1.544363E1,3.270784E1,0E0,0E0,0E0,0E0,0E0,0E0,0E0,0E0,0E0,0E0,0E0,0E0,0E0,0E0,0E0,0E0],"parents":[2147483647,0,0,1,1,2,2,3,3,4,4,5,5,6,6,7,7,8,8,9,9,10,10,11,11,12,12,13,13,14,14],"right_children":[2,4,6,8,10,12,14,16,18,20,22,24,26,28,30,-1,-1,-1,-1,-1,-1,-1,-1,-1,-1,-1,-1,-1,-1,-1,-1],"split_conditions":[1E0,5.199923E-1,-1.3170334E0,5.074123E-1,-2.7071348E-1,-1.5326133E0,1E0,1.6387187E0,2E0,-4.1618085E-1,5.703124E-1,1.5218705E0,1.5218705E0,-1.0650901E0,-9.3928987E-1,5.7975476E-4,1.2439767E-2,6.229139E-2,-7.7287756E-2,5.161154E-4,2.2713663E-2,-4.2453192E-2,-3.6025953E-3,-1.7047254E-2,2.986053E-2,-2.0964243E-2,-9.536769E-2,1.4282497E-2,-1.8971105E-3,-3.302449E-2,-4.3333796E-4],"split_indices":[5,1,0,1,0,0,3,0,3,0,1,2,2,1,1,0,0,0,0,0,0,0,0,0,0,0,0,0,0,0,0],"split_type":[0,0,0,0,0,0,0,0,0,0,0,0,0,0,0,0,0,0,0,0,0,0,0,0,0,0,0,0,0,0,0],"sum_hessian":[3.5713363E4,2.950722E4,6.206145E3,1.9170494E4,1.0336726E4,5.4805853E2,5.6580864E3,1.903887E4,1.3162592E2,4.206349E3,6.130376E3,3.881492E2,1.5990933E2,3.7355286E3,1.922558E3,1.7988541E4,1.0503281E3,1.22136475E2,9.489432E0,3.5672458E3,6.391034E2,2.3068163E2,5.8996943E3,2.559731E2,1.321761E2,1.1341356E2,4.6495777E1,7.3316724E2,3.0023613E3,3.8398923E2,1.5385687E3],"tree_param":{"num_deleted":"0","num_feature":"9","num_nodes":"31","size_leaf_vector":"1"}},{"base_weights":[-7.391573E-5,-9.626029E-2,1.3444549E-3,5.414865E-1,-1.2660109E-1,-1.65558E-2,9.780471E-3,-1.3040276E-1,8.403497E-1,-1.5492639E-1,-9.673484E-2,-5.042204E-3,-1.559302E-1,3.3116143E-2,-1.2599867E-2,1.10933736E-1,-1.1866734E-1,8.490119E-2,-1.2995866E-2,8.768621E-3,-1.3723712E-3,6.0363803E-3,-3.4473635E-2,1.0891407E-3,9.577838E-3,3.387409E-2,-1.7623401E-3],"categories":[],"categories_nodes":[],"categories_segments":[],"categories_sizes":[],"default_left":[0,0,0,0,0,0,0,0,0,0,0,0,0,0,0,0,0,0,0,0,0,0,0,0,0,0,0],"id":31,"left_children":[1,3,5,7,9,11,13,-1,15,-1,17,19,21,23,25,-1,-1,-1,-1,-1,-1,-1,-1,-1,-1,-1,-1],"loss_changes":[4.872198E0,1.0110451E1,5.3146505E0,1.4199774E1,2.0933884E1,1.8089954E1,1.249346E1,0E0,1.2796566E1,0E0,1.5414827E1,8.385019E0,3.514953E1,1.630814E1,2.1558428E1,0E0,0E0,0E0,0E0,0E0,0E0,0E0,0E0,0E0,0E0,0E0,0E0],"parents":[2147483647,0,0,1,1,2,2,3,3,4,4,5,5,6,6,8,8,10,10,11,11,12,12,13,13,14,14],"right_children":[2,4,6,8,10,12,14,-1,16,-1,18,20,22,24,26,-1,-1,-1,-1,-1,-1,-1,-1,-1,-1,-1,-1],"split_conditions":[-2.147478E0,-1.6311909E0,-5.933394E-1,-2.6450312E0,-1.5242608E0,-6.813995E-1,5.325723E-1,-1.3040276E-1,1E0,-1.5492639E-1,-1.4550706E0,-1.3170334E0,-1.6108681E-1,6.870741E-1,-1.9024965E0,1.10933736E-1,-1.1866734E-1,8.490119E-2,-1.2995866E-2,8.768621E-3,-1.3723712E-3,6.0363803E-3,-3.4473635E-2,1.0891407E-3,9.577838E-3,3.387409E-2,-1.7623401E-3],"split_indices":[0,1,1,0,1,1,1,0,3,0,1,0,0,0,0,0,0,0,0,0,0,0,0,0,0,0,0],"split_type":[0,0,0,0,0,0,0,0,0,0,0,0,0,0,0,0,0,0,0,0,0,0,0,0,0,0,0],"sum_hessian":[3.5710668E4,5.179679E2,3.51927E4,2.2758116E1,4.9520978E2,1.1272594E4,2.3920105E4,2.7030683E0,2.0055048E1,9.136244E0,4.8607355E2,1.0413389E4,8.592045E2,1.1709887E4,1.2210219E4,1.8105198E1,1.9498491E0,1.5662808E1,4.7041074E2,8.906911E2,9.522698E3,4.0076886E2,4.5843564E2,8.644922E3,3.064965E3,1.7118637E2,1.2039032E4],"tree_param":{"num_deleted":"0","num_feature":"9","num_nodes":"27","size_leaf_vector":"1"}},{"base_weights":[-7.3534204E-5,-2.0195253E-2,6.4994516E-3,-2.161158E-1,-1.2558604E-2,2.3420437E-3,8.334853E-2,-1.5513013E-1,-1.4876676E-1,6.0295615E-2,-3.7201483E-2,-3.3140097E-2,1.1509319E-2,-3.9845827E-1,1.1013157E-1,9.8710425E-2,-1.9933172E-2,3.8370676E-3,2.8301118E-2,-2.7038593E-2,-1.5821327E-3,-2.496285E-3,-5.560113E-2,1.0932333E-2,-3.625884E-4,-6.457732E-2,8.270549E-2,3.033199E-2,3.3021618E-3],"categories":[],"categories_nodes":[],"categories_segments":[],"categories_sizes":[],"default_left":[0,0,0,0,0,0,0,0,0,0,0,0,0,0,0,0,0,0,0,0,0,0,0,0,0,0,0,0,0],"id":32,"left_children":[1,3,5,7,9,11,13,15,-1,17,19,21,23,25,27,-1,-1,-1,-1,-1,-1,-1,-1,-1,-1,-1,-1,-1,-1],"loss_changes":[4.723059E0,1.3153047E1,8.599775E0,2.534507E1,1.5198171E1,8.306958E0,1.7870224E1,1.6142838E1,0E0,1.0437478E1,3.1531017E1,2.2405308E1,3.0045332E1,2.264877E1,1.949678E1,0E0,0E0,0E0,0E0,0E0,0E0,0E0,0E0,0E0,0E0,0E0,0E0,0E0,0E0],"parents":[2147483647,0,0,1,1,2,2,3,3,4,4,5,5,6,6,7,7,9,9,10,10,11,11,12,12,13,13,14,14],"right_children":[2,4,6,8,10,12,14,16,-1,18,20,22,24,26,28,-1,-1,-1,-1,-1,-1,-1,-1,-1,-1,-1,-1,-1,-1],"split_conditions":[1E0,-1.7150656E0,3E0,1.4949437E0,-6.0828686E-1,-8.1971854E-1,-1.4802307E0,-1.656351E0,-1.4876676E-1,-6.664578E-1,-4.1618085E-1,-8.342282E-1,-5.0373864E-1,2E0,-6.0591936E-1,9.8710425E-2,-1.9933172E-2,3.8370676E-3,2.8301118E-2,-2.7038593E-2,-1.5821327E-3,-2.496285E-3,-5.560113E-2,1.0932333E-2,-3.625884E-4,-6.457732E-2,8.270549E-2,3.033199E-2,3.3021618E-3],"split_indices":[7,0,3,1,0,0,1,1,0,0,0,0,0,5,1,0,0,0,0,0,0,0,0,0,0,0,0,0,0],"split_type":[0,0,0,0,0,0,0,0,0,0,0,0,0,0,0,0,0,0,0,0,0,0,0,0,0,0,0,0,0],"sum_hessian":[3.5708477E4,8.791919E3,2.6916559E4,3.2881335E2,8.463106E3,2.5536127E4,1.3804318E3,3.1483533E2,1.3978012E1,2.1387266E3,6.3243794E3,5.242459E3,2.0293668E4,7.196462E1,1.308467E3,1.0934697E1,3.0390063E2,1.9481189E3,1.906077E2,5.301885E2,5.794191E3,5.1627656E3,7.96934E1,2.718519E3,1.7575148E4,6.0274063E1,1.169056E1,3.72439E2,9.360281E2],"tree_param":{"num_deleted":"0","num_feature":"9","num_nodes":"29","size_leaf_vector":"1"}},{"base_weights":[-7.0520924E-5,-7.5769275E-3,1.6853064E-2,-4.462604E-2,1.841318E-3,-7.6726064E-2,3.3530608E-2,1.2897317E-1,-7.842654E-2,1.8821548E-1,-4.542302E-3,-2.0297022E-1,-1.8792339E-2,1.3382837E-1,1.7694607E-2,-1.4851628E-3,2.7716948E-2,-6.8767495E-3,-6.919073E-2,7.982083E-3,6.8976186E-2,-3.4696893E-3,9.554417E-4,-1.2946677E-2,-7.121523E-2,1.2493619E-2,-1.306698E-2,1.0036961E-2,5.8707427E-2,-6.5792404E-2,2.2083637E-3],"categories":[],"categories_nodes":[],"categories_segments":[],"categories_sizes":[],"default_left":[0,0,0,0,0,0,0,0,0,0,0,0,0,0,0,0,0,0,0,0,0,0,0,0,0,0,0,0,0,0,0],"id":33,"left_children":[1,3,5,7,9,11,13,15,17,19,21,23,25,27,29,-1,-1,-1,-1,-1,-1,-1,-1,-1,-1,-1,-1,-1,-1,-1,-1],"loss_changes":[4.536159E0,8.631469E0,1.7125723E1,2.9429193E1,2.3466711E1,1.213628E1,1.4789257E1,1.7428013E1,2.482364E1,3.54568E1,8.107163E0,1.9445309E1,1.8329315E1,1.9196707E1,2.3867596E1,0E0,0E0,0E0,0E0,0E0,0E0,0E0,0E0,0E0,0E0,0E0,0E0,0E0,0E0,0E0,0E0],"parents":[2147483647,0,0,1,1,2,2,3,3,4,4,5,5,6,6,7,7,8,8,9,9,10,10,11,11,12,12,13,13,14,14],"right_children":[2,4,6,8,10,12,14,16,18,20,22,24,26,28,30,-1,-1,-1,-1,-1,-1,-1,-1,-1,-1,-1,-1,-1,-1,-1,-1],"split_conditions":[1.5218705E0,-8.1971854E-1,-1.1594402E0,-1.2097603E0,-7.422432E-1,-4.490202E-1,-1.1489162E0,-1.4424907E0,-8.342282E-1,1.2685034E0,-5.933394E-1,2E0,2.9596502E-1,3E0,-1.1110852E0,-1.4851628E-3,2.7716948E-2,-6.8767495E-3,-6.919073E-2,7.982083E-3,6.8976186E-2,-3.4696893E-3,9.554417E-4,-1.2946677E-2,-7.121523E-2,1.2493619E-2,-1.306698E-2,1.0036961E-2,5.8707427E-2,-6.5792404E-2,2.2083637E-3],"split_indices":[2,0,1,1,0,0,0,1,0,1,1,3,0,3,0,0,0,0,0,0,0,0,0,0,0,0,0,0,0,0,0],"split_type":[0,0,0,0,0,0,0,0,0,0,0,0,0,0,0,0,0,0,0,0,0,0,0,0,0,0,0,0,0,0,0],"sum_hessian":[3.570585E4,2.4735186E4,1.0970667E4,5.012698E3,1.9722486E4,1.6588904E3,9.311776E3,8.164743E2,4.196224E3,6.522124E2,1.9070273E4,5.210216E2,1.1378688E3,1.2687378E3,8.043039E3,4.1480502E2,4.016693E2,4.132275E3,6.394914E1,5.372587E2,1.1495368E2,6.074571E3,1.2995704E4,4.5639285E2,6.4628746E1,4.9798837E2,6.398804E2,1.1826553E3,8.608254E1,5.095177E1,7.992087E3],"tree_param":{"num_deleted":"0","num_feature":"9","num_nodes":"31","size_leaf_vector":"1"}},{"base_weights":[-6.595475E-5,-5.900843E-3,1.9647013E-2,-3.7387938E-3,-5.4322445E-1,3.3650696E-1,1.3050742E-2,4.6070176E-3,-4.7231127E-2,-3.6281592E-1,-1.588652E-1,4.9187306E-1,-7.820584E-1,-4.4837838E-1,1.6708277E-2,-6.781917E-4,8.393255E-3,-1.4291509E-2,-7.8741676E-4,-2.1035058E-2,-1.6620512E-1,1.4441054E-1,3.3403434E-2,-2.4155958E-2,-1.7073677E-1,-7.66515E-2,2.583464E-2,4.5177713E-2,8.7344553E-4],"categories":[],"categories_nodes":[],"categories_segments":[],"categories_sizes":[],"default_left":[0,0,0,0,0,0,0,0,0,0,0,0,0,0,0,0,0,0,0,0,0,0,0,0,0,0,0,0,0],"id":34,"left_children":[1,3,5,7,9,11,13,15,17,19,-1,21,23,25,27,-1,-1,-1,-1,-1,-1,-1,-1,-1,-1,-1,-1,-1,-1],"loss_changes":[4.1068764E0,3.2003574E1,1.703959E1,9.960639E0,2.0246162E1,2.9278193E1,1.3491129E1,2.0801031E1,1.6636253E1,1.8558159E1,0E0,2.1550797E1,9.92153E0,1.43325205E1,2.7497911E1,0E0,0E0,0E0,0E0,0E0,0E0,0E0,0E0,0E0,0E0,0E0,0E0,0E0,0E0],"parents":[2147483647,0,0,1,1,2,2,3,3,4,4,5,5,6,6,7,7,8,8,9,9,11,11,12,12,13,13,14,14],"right_children":[2,4,6,8,10,12,14,16,18,20,-1,22,24,26,28,-1,-1,-1,-1,-1,-1,-1,-1,-1,-1,-1,-1,-1,-1],"split_conditions":[7.643228E-1,7.5095093E-1,7.772578E-1,3.711809E-1,1.0294831E0,1E0,-1.6940911E0,1.6517648E-1,4.801495E-1,2E0,-1.588652E-1,-1.3858806E0,3.5645208E-1,1.7193216E0,-1.6437709E0,-6.781917E-4,8.393255E-3,-1.4291509E-2,-7.8741676E-4,-2.1035058E-2,-1.6620512E-1,1.4441054E-1,3.3403434E-2,-2.4155958E-2,-1.7073677E-1,-7.66515E-2,2.583464E-2,4.5177713E-2,8.7344553E-4],"split_indices":[0,0,0,0,1,5,1,0,0,3,0,1,1,0,1,0,0,0,0,0,0,0,0,0,0,0,0,0,0],"split_type":[0,0,0,0,0,0,0,0,0,0,0,0,0,0,0,0,0,0,0,0,0,0,0,0,0,0,0,0,0],"sum_hessian":[3.5702832E4,2.7549184E4,8.153648E3,2.743978E4,1.0940352E2,1.6525812E2,7.9883896E3,2.3022793E4,4.416986E3,9.44512E1,1.4952316E1,1.455955E2,1.966261E1,6.1866077E1,7.9265234E3,2.0133148E4,2.8896445E3,1.2865403E3,3.1304456E3,8.557131E1,8.879895E0,1.9543205E1,1.260523E2,1.3208322E1,6.454288E0,4.2603325E1,1.9262753E1,1.4165875E2,7.7848647E3],"tree_param":{"num_deleted":"0","num_feature":"9","num_nodes":"29","size_leaf_vector":"1"}},{"base_weights":[-7.2611176E-5,4.7149495E-3,-2.2837063E-2,5.923341E-3,-1.4329907E-1,-3.8743958E-2,3.4255143E-2,1.4521881E-3,8.675267E-2,-2.2076045E-1,2.4962841E-1,-2.3474965E-2,-6.4794147E-1,3.4848982E-1,-2.0412896E-2,5.706862E-4,-1.2634307E-2,2.2391777E-2,-3.819476E-3,-2.3417587E-3,-5.3878106E-2,1.4307621E-1,-1.8800108E-3,-4.8027374E-3,5.639796E-3,-7.155508E-2,1.412584E-1,4.526111E-2,-6.5103285E-2,-1.8108478E-2,1.0288253E-2],"categories":[],"categories_nodes":[],"categories_segments":[],"categories_sizes":[],"default_left":[0,0,0,0,0,0,0,0,0,0,0,0,0,0,0,0,0,0,0,0,0,0,0,0,0,0,0,0,0,0,0],"id":35,"left_children":[1,3,5,7,9,11,13,15,17,19,21,23,25,27,29,-1,-1,-1,-1,-1,-1,-1,-1,-1,-1,-1,-1,-1,-1,-1,-1],"loss_changes":[3.8910968E0,5.276974E0,5.635416E0,1.0574771E1,7.32701E0,4.5121643E1,2.3239157E1,1.5077272E1,2.6294392E1,1.2545827E1,1.2649712E1,9.288108E0,1.7534618E1,2.1157515E1,2.285804E1,0E0,0E0,0E0,0E0,0E0,0E0,0E0,0E0,0E0,0E0,0E0,0E0,0E0,0E0,0E0,0E0],"parents":[2147483647,0,0,1,1,2,2,3,3,4,4,5,5,6,6,7,7,8,8,9,9,10,10,11,11,12,12,13,13,14,14],"right_children":[2,4,6,8,10,12,14,16,18,20,22,24,26,28,30,-1,-1,-1,-1,-1,-1,-1,-1,-1,-1,-1,-1,-1,-1,-1,-1],"split_conditions":[1E0,1.6962241E0,8.174086E-1,1.5263939E0,1.2069173E0,7.3803854E-1,9.1462535E-1,1.4131737E0,-1.4069925E-1,-1.5193497E-1,1.230192E0,2.5699884E-1,1.7088041E0,1.3188236E0,-1.1529864E-1,5.706862E-4,-1.2634307E-2,2.2391777E-2,-3.819476E-3,-2.3417587E-3,-5.3878106E-2,1.4307621E-1,-1.8800108E-3,-4.8027374E-3,5.639796E-3,-7.155508E-2,1.412584E-1,4.526111E-2,-6.5103285E-2,-1.8108478E-2,1.0288253E-2],"split_indices":[5,1,0,1,0,0,0,1,0,0,0,0,1,1,1,0,0,0,0,0,0,0,0,0,0,0,0,0,0,0,0],"split_type":[0,0,0,0,0,0,0,0,0,0,0,0,0,0,0,0,0,0,0,0,0,0,0,0,0,0,0,0,0,0,0],"sum_hessian":[3.5700668E4,2.9497818E4,6.202852E3,2.9259898E4,2.3791884E2,4.8514688E3,1.3513833E3,2.7727162E4,1.5327369E3,1.9910551E2,3.8813324E1,4.7338574E3,1.176114E2,1.994663E2,1.1519171E3,2.683471E4,8.924498E2,7.302687E2,8.0246826E2,1.23526596E2,7.557892E1,6.3855624E0,3.2427765E1,3.6211414E3,1.1127162E3,1.14506966E2,3.1044343E0,1.8114355E2,1.8322737E1,4.99946E2,6.5197107E2],"tree_param":{"num_deleted":"0","num_feature":"9","num_nodes":"31","size_leaf_vector":"1"}},{"base_weights":[-6.440964E-5,-1.8412339E-2,5.927875E-3,-6.890804E-3,-1.3633607E-1,-7.2450656E-4,4.5385644E-2,-1.13083124E-1,1.023067E-2,-5.118991E-1,-7.669919E-2,3.3701595E-3,-1.3437414E-1,1.48544E-1,2.2606164E-2,8.215345E-3,-1.9827148E-2,1.977071E-2,-6.0660124E-4,1.1554266E-2,-6.2460322E-2,-2.21486E-3,-4.4246417E-2,6.646607E-5,1.7074626E-2,-1.177416E-2,-1.4364521E-1,1.9156417E-2,-3.9330207E-2,-1.8787293E-2,3.7926384E-3],"categories":[],"categories_nodes":[],"categories_segments":[],"categories_sizes":[],"default_left":[0,0,0,0,0,0,0,0,0,0,0,0,0,0,0,0,0,0,0,0,0,0,0,0,0,0,0,0,0,0,0],"id":36,"left_children":[1,3,5,7,9,11,13,15,17,19,21,23,25,27,29,-1,-1,-1,-1,-1,-1,-1,-1,-1,-1,-1,-1,-1,-1,-1,-1],"loss_changes":[3.9249685E0,1.19399395E1,7.063683E0,1.4560143E1,1.7480053E1,1.2603056E1,9.119902E0,1.8508986E1,2.1072042E1,7.6395187E0,1.3482032E1,1.0118661E1,1.4657075E1,1.6440739E1,1.0265652E1,0E0,0E0,0E0,0E0,0E0,0E0,0E0,0E0,0E0,0E0,0E0,0E0,0E0,0E0,0E0,0E0],"parents":[2147483647,0,0,1,1,2,2,3,3,4,4,5,5,6,6,7,7,8,8,9,9,10,10,11,11,12,12,13,13,14,14],"right_children":[2,4,6,8,10,12,14,16,18,20,22,24,26,28,30,-1,-1,-1,-1,-1,-1,-1,-1,-1,-1,-1,-1,-1,-1,-1,-1],"split_conditions":[1E0,1.3880136E0,1.0934932E0,-1.2537904E0,1.4446237E0,9.7474945E-1,1.2069173E0,-6.2063825E-1,-1.05251E0,-1.1692969E0,2E0,9.2950815E-1,1.6459041E0,1.3880136E0,-1.4676507E0,8.215345E-3,-1.9827148E-2,1.977071E-2,-6.0660124E-4,1.1554266E-2,-6.2460322E-2,-2.21486E-3,-4.4246417E-2,6.646607E-5,1.7074626E-2,-1.177416E-2,-1.4364521E-1,1.9156417E-2,-3.9330207E-2,-1.8787293E-2,3.7926384E-3],"split_indices":[7,1,0,1,1,0,0,0,1,0,3,0,1,1,1,0,0,0,0,0,0,0,0,0,0,0,0,0,0,0,0],"split_type":[0,0,0,0,0,0,0,0,0,0,0,0,0,0,0,0,0,0,0,0,0,0,0,0,0,0,0,0,0,0,0],"sum_hessian":[3.569706E4,8.787702E3,2.6909357E4,8.006499E3,7.8120264E2,2.3027943E4,3.881414E3,1.1108823E3,6.8956167E3,1.0601157E2,6.751911E2,2.2344348E4,6.8359607E2,7.0106683E2,3.1803472E3,3.374781E2,7.734042E2,5.505843E2,6.3450327E3,1.6138845E1,8.987273E1,5.8848444E2,8.6706665E1,2.1989902E4,3.5444498E2,6.760507E2,7.54534E0,6.500983E2,5.096847E1,2.1501866E2,2.9653286E3],"tree_param":{"num_deleted":"0","num_feature":"9","num_nodes":"31","size_leaf_vector":"1"}},{"base_weights":[-6.719444E-5,8.173694E-4,-1.1564742E-1,-1.2074587E-3,1.546354E-1,-1.4884488E-1,-7.016931E-2,4.2264297E-4,-4.6905544E-1,-7.695417E-1,1.9615924E-1,1.5365241E-1,-1.3130811E-1,-1.477393E-4,8.657717E-3,-6.9889226E-3,-1.528551E-1,1.1896427E-1,-1.1816613E-1,2.1615531E-2,-1.4706993E-1,-1.700417E-1,-8.515104E-3],"categories":[],"categories_nodes":[],"categories_segments":[],"categories_sizes":[],"default_left":[0,0,0,0,0,0,0,0,0,0,0,0,0,0,0,0,0,0,0,0,0,0,0],"id":37,"left_children":[1,3,5,7,9,-1,11,13,15,17,19,-1,21,-1,-1,-1,-1,-1,-1,-1,-1,-1,-1],"loss_changes":[3.6494324E0,1.1033293E1,1.682167E1,2.6665993E1,1.781393E1,0E0,2.6082474E1,5.704094E0,5.1237267E1,1.7549313E1,1.5025835E1,0E0,1.8304167E1,0E0,0E0,0E0,0E0,0E0,0E0,0E0,0E0,0E0,0E0],"parents":[2147483647,0,0,1,1,2,2,3,3,4,4,6,6,7,7,8,8,9,9,10,10,12,12],"right_children":[2,4,6,8,10,-1,12,14,16,18,20,-1,22,-1,-1,-1,-1,-1,-1,-1,-1,-1,-1],"split_conditions":[2.4137685E0,2.0567918E0,-1.5620009E0,1.9850734E0,-1.5368408E0,-1.4884488E-1,-1.5368408E0,1.7193216E0,3.9419213E-1,-1.706671E0,1.683644E0,1.5365241E-1,-1.3481405E0,-1.477393E-4,8.657717E-3,-6.9889226E-3,-1.528551E-1,1.1896427E-1,-1.1816613E-1,2.1615531E-2,-1.4706993E-1,-1.700417E-1,-8.515104E-3],"split_indices":[0,0,1,0,1,0,1,0,1,1,1,0,1,0,0,0,0,0,0,0,0,0,0],"split_type":[0,0,0,0,0,0,0,0,0,0,0,0,0,0,0,0,0,0,0,0,0,0,0],"sum_hessian":[3.5693504E4,3.5423395E4,2.70111E2,3.4964125E4,4.5926822E2,7.6438856E0,2.624671E2,3.484372E4,1.20405304E2,1.899405E1,4.4027417E2,8.736813E0,2.5373029E2,3.4092824E4,7.50894E2,8.823037E1,3.2174934E1,2.9731727E0,1.6020878E1,4.3591516E2,4.359028E0,6.2263346E0,2.4750395E2],"tree_param":{"num_deleted":"0","num_feature":"9","num_nodes":"23","size_leaf_vector":"1"}},{"base_weights":[-7.458453E-5,-6.749527E-3,1.4974993E-2,3.1101061E-2,-1.52310105E-2,-1.2583745E-1,2.4155645E-2,1.6826876E-1,5.1609613E-3,-2.0661864E-1,-6.545129E-3,-2.61445E-2,-3.501414E-1,3.6276907E-1,2.0735422E-2,1.2530503E-2,5.354453E-2,-3.671458E-2,1.4075435E-3,-1.6405867E-2,-6.849211E-2,3.333264E-2,-1.0409709E-3,-9.3161715E-3,4.4498913E-2,-4.530932E-2,1.0553216E-1,4.696752E-2,-3.1749256E-2,2.4591412E-3,-2.3232779E-2],"categories":[],"categories_nodes":[],"categories_segments":[],"categories_sizes":[],"default_left":[0,0,0,0,0,0,0,0,0,0,0,0,0,0,0,0,0,0,0,0,0,0,0,0,0,0,0,0,0,0,0],"id":38,"left_children":[1,3,5,7,9,11,13,15,17,19,21,23,25,27,29,-1,-1,-1,-1,-1,-1,-1,-1,-1,-1,-1,-1,-1,-1,-1,-1],"loss_changes":[3.585645E0,7.938525E0,1.4180792E1,1.6106129E1,3.3580338E1,1.5004997E1,1.1917427E1,1.1289438E1,1.2643291E1,1.7739632E1,2.5386257E1,1.4752194E1,3.0359936E1,7.6326466E0,9.953888E0,0E0,0E0,0E0,0E0,0E0,0E0,0E0,0E0,0E0,0E0,0E0,0E0,0E0,0E0,0E0,0E0],"parents":[2147483647,0,0,1,1,2,2,3,3,4,4,5,5,6,6,7,7,8,8,9,9,10,10,11,11,12,12,13,13,14,14],"right_children":[2,4,6,8,10,12,14,16,18,20,22,24,26,28,30,-1,-1,-1,-1,-1,-1,-1,-1,-1,-1,-1,-1,-1,-1,-1,-1],"split_conditions":[1.5218705E0,-1.0902501E0,-1.4802307E0,-1.0774761E0,-9.518699E-1,-1.5745808E0,-1.4550706E0,-1.1312258E0,-9.820082E-1,1.3166217E0,-9.267099E-1,-1.5871608E0,2.0567918E0,1E0,2.157469E0,1.2530503E-2,5.354453E-2,-3.671458E-2,1.4075435E-3,-1.6405867E-2,-6.849211E-2,3.333264E-2,-1.0409709E-3,-9.3161715E-3,4.4498913E-2,-4.530932E-2,1.0553216E-1,4.696752E-2,-3.1749256E-2,2.4591412E-3,-2.3232779E-2],"split_indices":[2,1,1,0,1,1,1,0,0,0,1,1,0,5,0,0,0,0,0,0,0,0,0,0,0,0,0,0,0,0,0],"split_type":[0,0,0,0,0,0,0,0,0,0,0,0,0,0,0,0,0,0,0,0,0,0,0,0,0,0,0,0,0,0,0],"sum_hessian":[3.5692016E4,2.4725887E4,1.0966128E4,4.525798E3,2.020009E4,6.7042786E2,1.0295699E4,7.1889465E2,3.8069033E3,8.759663E2,1.9324123E4,4.6491208E2,2.0551576E2,1.0190293E2,1.0193797E4,6.447885E2,7.410613E1,8.80809E1,3.7188225E3,8.0562384E2,7.034246E1,2.1630013E2,1.9107822E4,4.077178E2,5.7194267E1,1.9212035E2,1.3395415E1,8.83309E1,1.3572031E1,1.0041691E4,1.5210503E2],"tree_param":{"num_deleted":"0","num_feature":"9","num_nodes":"31","size_leaf_vector":"1"}},{"base_weights":[-6.7048095E-5,-8.25684E-2,1.1470736E-3,4.519721E-1,-1.08044915E-1,1.8705025E-2,-4.9687084E-3,-1.22828566E-1,7.215402E-1,-1.4454219E-1,-8.085574E-2,-8.20474E-3,1.2834992E-1,-3.23636E-1,-3.4034145E-3,9.6345626E-2,-1.1207787E-1,7.788814E-2,-1.1112549E-2,-3.813721E-3,5.5143777E-3,1.7278796E-4,2.3730954E-2,-5.823424E-3,-1.1889285E-1,-5.2801045E-3,2.2078607E-4],"categories":[],"categories_nodes":[],"categories_segments":[],"categories_sizes":[],"default_left":[0,0,0,0,0,0,0,0,0,0,0,0,0,0,0,0,0,0,0,0,0,0,0,0,0,0,0],"id":39,"left_children":[1,3,5,7,9,11,13,-1,15,-1,17,19,21,23,25,-1,-1,-1,-1,-1,-1,-1,-1,-1,-1,-1,-1],"loss_changes":[3.5749216E0,7.097718E0,3.7769027E0,1.1639192E1,1.7877546E1,2.6810806E1,1.3011162E1,0E0,1.0478417E1,0E0,1.2735931E1,1.3838127E1,2.4704733E1,2.9211391E1,7.195867E0,0E0,0E0,0E0,0E0,0E0,0E0,0E0,0E0,0E0,0E0,0E0,0E0],"parents":[2147483647,0,0,1,1,2,2,3,3,4,4,5,5,6,6,8,8,10,10,11,11,12,12,13,13,14,14],"right_children":[2,4,6,8,10,12,14,-1,16,-1,18,20,22,24,26,-1,-1,-1,-1,-1,-1,-1,-1,-1,-1,-1,-1],"split_conditions":[-2.147478E0,-1.6311909E0,-6.326772E-1,-2.6450312E0,-1.5242608E0,-7.795282E-1,-6.2063825E-1,-1.22828566E-1,1E0,-1.4454219E-1,-1.4550706E0,1.5218705E0,-4.6108536E-2,1.5218705E0,-1.3481405E0,9.6345626E-2,-1.1207787E-1,7.788814E-2,-1.1112549E-2,-3.813721E-3,5.5143777E-3,1.7278796E-4,2.3730954E-2,-5.823424E-3,-1.1889285E-1,-5.2801045E-3,2.2078607E-4],"split_indices":[0,1,0,0,1,0,0,0,3,0,1,2,1,2,1,0,0,0,0,0,0,0,0,0,0,0,0],"split_type":[0,0,0,0,0,0,0,0,0,0,0,0,0,0,0,0,0,0,0,0,0,0,0,0,0,0,0],"sum_hessian":[3.5687785E4,5.166065E2,3.517118E4,2.2740095E1,4.9386642E2,9.085456E3,2.6085725E4,2.6521788E0,2.0087915E1,8.801029E0,4.850654E2,7.2957983E3,1.7896575E3,1.2650101E2,2.5959223E4,1.8177994E1,1.9099214E0,1.5656277E1,4.6940912E2,4.9549565E3,2.340842E3,8.282101E2,9.6144745E2,9.7624886E1,2.887612E1,2.6471562E3,2.3312066E4],"tree_param":{"num_deleted":"0","num_feature":"9","num_nodes":"27","size_leaf_vector":"1"}},{"base_weights":[-7.045534E-5,7.099065E-3,-1.356664E-2,-9.379346E-3,4.5056753E-2,-9.2294596E-2,5.6922333E-3,-3.434123E-3,-4.269022E-1,3.802739E-2,2.1149495E-1,-1.759379E-2,-3.058862E-1,-1.613407E-1,1.7738994E-2,-9.081634E-4,9.553469E-3,-2.3383347E-2,-1.5447249E-1,8.245157E-3,7.181818E-4,2.5954444E-2,-1.677525E-1,7.7539505E-3,-4.0578883E-2,-9.3701296E-2,-1.8033588E-2,-1.2300137E-2,-1.099458E-1,2.187101E-2,4.5156895E-4],"categories":[],"categories_nodes":[],"categories_segments":[],"categories_sizes":[],"default_left":[0,0,0,0,0,0,0,0,0,0,0,0,0,0,0,0,0,0,0,0,0,0,0,0,0,0,0,0,0,0,0],"id":40,"left_children":[1,3,5,7,9,11,13,15,17,19,21,23,25,27,29,-1,-1,-1,-1,-1,-1,-1,-1,-1,-1,-1,-1,-1,-1,-1,-1],"loss_changes":[3.4531024E0,1.4577966E1,1.8772415E1,4.034008E1,8.246199E0,3.882138E1,2.0020964E1,8.957536E0,4.8879128E1,9.276958E0,2.6365124E1,6.665239E1,4.978915E1,2.3938326E1,2.4660664E1,0E0,0E0,0E0,0E0,0E0,0E0,0E0,0E0,0E0,0E0,0E0,0E0,0E0,0E0,0E0,0E0],"parents":[2147483647,0,0,1,1,2,2,3,3,4,4,5,5,6,6,7,7,8,8,9,9,10,10,11,11,12,12,13,13,14,14],"right_children":[2,4,6,8,10,12,14,16,18,20,22,24,26,28,30,-1,-1,-1,-1,-1,-1,-1,-1,-1,-1,-1,-1,-1,-1,-1,-1],"split_conditions":[5.325723E-1,-1.2787867E-1,7.715927E-1,-1.530387E-1,5.074123E-1,5.9210217E-1,-1.4438666E0,1.6387187E0,1E0,1.2372172E-1,1.5641313E0,7.149826E-1,7.643228E-1,-1.4700588E0,-1.1489162E0,-9.081634E-4,9.553469E-3,-2.3383347E-2,-1.5447249E-1,8.245157E-3,7.181818E-4,2.5954444E-2,-1.677525E-1,7.7539505E-3,-4.0578883E-2,-9.3701296E-2,-1.8033588E-2,-1.2300137E-2,-1.099458E-1,2.187101E-2,4.5156895E-4],"split_indices":[1,1,1,1,1,0,0,0,5,1,0,1,0,0,0,0,0,0,0,0,0,0,0,0,0,0,0,0,0,0,0],"split_type":[0,0,0,0,0,0,0,0,0,0,0,0,0,0,0,0,0,0,0,0,0,0,0,0,0,0,0,0,0,0,0],"sum_hessian":[3.5684863E4,2.330508E4,1.2379784E4,1.6250898E4,7.054181E3,2.4324458E3,9.947338E3,1.602374E4,2.2715823E2,6.769506E3,2.846753E2,1.8029653E3,6.294806E2,6.6832764E2,9.279011E3,1.5159589E4,8.641515E2,1.9473335E2,3.242488E1,2.7734607E3,3.9960452E3,2.7845508E2,6.2202363E0,1.4487312E3,3.542341E2,1.0337307E2,5.2610754E2,6.4317334E2,2.5154327E1,5.718809E2,8.70713E3],"tree_param":{"num_deleted":"0","num_feature":"9","num_nodes":"31","size_leaf_vector":"1"}},{"base_weights":[-8.083092E-5,-1.7084919E-2,5.47136E-3,-2.7184895E-1,-1.2321123E-2,1.802332E-3,7.333784E-2,-2.1706189E-1,-1.4802967E-1,5.3087634E-1,-1.5233562E-2,5.246427E-2,-5.935837E-3,1.6400258E-1,-4.2218506E-2,1.9860768E-3,-5.0353643E-2,7.652083E-2,-1.4676063E-1,-3.5519958E-2,-1.0287503E-3,2.9715884E-3,3.8422454E-2,-1.13774305E-2,4.1476017E-4,2.6454797E-3,3.6324136E-2,-1.2118317E-3,-1.0407551E-1],"categories":[],"categories_nodes":[],"categories_segments":[],"categories_sizes":[],"default_left":[0,0,0,0,0,0,0,0,0,0,0,0,0,0,0,0,0,0,0,0,0,0,0,0,0,0,0,0,0],"id":41,"left_children":[1,3,5,7,9,11,13,15,-1,17,19,21,23,25,27,-1,-1,-1,-1,-1,-1,-1,-1,-1,-1,-1,-1,-1,-1],"loss_changes":[3.368937E0,1.06568E1,6.6982145E0,1.0350034E1,1.3650576E1,1.0005663E1,1.4461817E1,1.0554789E1,0E0,2.2673214E1,1.4420848E1,2.5511183E1,2.4076262E1,2.118307E1,1.824274E1,0E0,0E0,0E0,0E0,0E0,0E0,0E0,0E0,0E0,0E0,0E0,0E0,0E0,0E0],"parents":[2147483647,0,0,1,1,2,2,3,3,4,4,5,5,6,6,7,7,9,9,10,10,11,11,12,12,13,13,14,14],"right_children":[2,4,6,8,10,12,14,16,-1,18,20,22,24,26,28,-1,-1,-1,-1,-1,-1,-1,-1,-1,-1,-1,-1,-1,-1],"split_conditions":[1E0,-1.9695873E0,3E0,3E0,-1.9024965E0,-1.2663704E0,8.713172E-2,-2.2524035E0,-1.4802967E-1,1E0,-1.7150656E0,-1.2915304E0,-9.959E-1,-4.380821E-1,1.601874E0,1.9860768E-3,-5.0353643E-2,7.652083E-2,-1.4676063E-1,-3.5519958E-2,-1.0287503E-3,2.9715884E-3,3.8422454E-2,-1.13774305E-2,4.1476017E-4,2.6454797E-3,3.6324136E-2,-1.2118317E-3,-1.0407551E-1],"split_indices":[7,0,3,3,0,1,0,0,0,5,0,1,1,0,1,0,0,0,0,0,0,0,0,0,0,0,0,0,0],"split_type":[0,0,0,0,0,0,0,0,0,0,0,0,0,0,0,0,0,0,0,0,0,0,0,0,0,0,0,0,0],"sum_hessian":[3.568215E4,8.782591E3,2.6899557E4,1.6018082E2,8.62241E3,2.5520863E4,1.3786937E3,1.5436217E2,5.8186555E0,4.5017094E1,8.577393E3,3.3808162E3,2.2140047E4,7.7231854E2,6.0637524E2,8.4997475E1,6.9364685E1,4.084493E1,4.172165E0,1.2198483E2,8.455408E3,3.164893E3,2.1592319E2,1.8923041E3,2.0247742E4,4.5756424E2,3.147543E2,5.896139E2,1.6761366E1],"tree_param":{"num_deleted":"0","num_feature":"9","num_nodes":"29","size_leaf_vector":"1"}},{"base_weights":[-8.4204534E-5,-5.8077103E-3,1.6948419E-2,3.388894E-3,-6.551718E-2,3.3793204E-2,-5.399494E-2,-7.873255E-3,6.8231024E-2,-1.2228848E-1,5.5963725E-2,2.1551164E-2,2.3167309E-1,-5.4467964E-1,-2.4427263E-2,-3.5229287E-4,-7.159161E-2,8.042368E-3,-8.6336136E-2,-1.138852E-2,-1.6201204E-1,1.1960899E-2,-2.546846E-2,2.466088E-3,-9.5549524E-2,6.040556E-2,1.4811869E-2,-4.1092444E-2,-1.6184123E-1,-2.4335943E-2,2.1819153E-3],"categories":[],"categories_nodes":[],"categories_segments":[],"categories_sizes":[],"default_left":[0,0,0,0,0,0,0,0,0,0,0,0,0,0,0,0,0,0,0,0,0,0,0,0,0,0,0,0,0,0,0],"id":42,"left_children":[1,3,5,7,9,11,13,15,17,19,21,23,25,27,29,-1,-1,-1,-1,-1,-1,-1,-1,-1,-1,-1,-1,-1,-1,-1,-1],"loss_changes":[3.4785843E0,1.4666252E1,1.0726887E1,1.6901985E1,2.4590961E1,1.7565777E1,2.4976854E1,6.074026E1,3.897346E1,3.0397018E1,2.2490435E1,2.0780909E1,1.305584E1,1.3387363E1,1.6464376E1,0E0,0E0,0E0,0E0,0E0,0E0,0E0,0E0,0E0,0E0,0E0,0E0,0E0,0E0,0E0,0E0],"parents":[2147483647,0,0,1,1,2,2,3,3,4,4,5,5,6,6,7,7,8,8,9,9,10,10,11,11,12,12,13,13,14,14],"right_children":[2,4,6,8,10,12,14,16,18,20,22,24,26,28,30,-1,-1,-1,-1,-1,-1,-1,-1,-1,-1,-1,-1,-1,-1,-1,-1],"split_conditions":[6.870741E-1,3.8239306E-1,1.0420631E0,1.3718054E-1,7.024026E-1,8.9110285E-1,1.0923831E0,1.2542573E-1,1.658484E0,6.8353254E-1,1.5138139E0,8.785229E-1,8.314631E-1,2E0,8.451178E-1,-3.5229287E-4,-7.159161E-2,8.042368E-3,-8.6336136E-2,-1.138852E-2,-1.6201204E-1,1.1960899E-2,-2.546846E-2,2.466088E-3,-9.5549524E-2,6.040556E-2,1.4811869E-2,-4.1092444E-2,-1.6184123E-1,-2.4335943E-2,2.1819153E-3],"split_indices":[0,0,1,0,1,1,1,0,1,1,1,1,0,3,0,0,0,0,0,0,0,0,0,0,0,0,0,0,0,0,0],"split_type":[0,0,0,0,0,0,0,0,0,0,0,0,0,0,0,0,0,0,0,0,0,0,0,0,0,0,0,0,0,0,0],"sum_hessian":[3.5680785E4,2.6707027E4,8.973756E3,2.3143371E4,3.5636575E3,7.2522954E3,1.7214606E3,1.9719291E4,3.4240796E3,2.4286687E3,1.1349889E3,6.830809E3,4.21486E2,9.6846214E1,1.6246144E3,1.9599871E4,1.1941971E2,3.380746E3,4.333341E1,2.4161892E3,1.2479508E1,9.4250464E2,1.924843E2,6.810109E3,2.0700272E1,7.609937E1,3.4538663E2,8.734796E1,9.498257E0,2.8258496E2,1.3420294E3],"tree_param":{"num_deleted":"0","num_feature":"9","num_nodes":"31","size_leaf_vector":"1"}},{"base_weights":[-9.595944E-5,5.0469786E-2,-1.782651E-3,6.3793454E-3,4.470461E-1,-9.4836526E-2,1.6198904E-3,2.251127E-1,-9.688948E-2,-8.6651933E-1,6.1899596E-1,-2.517506E-1,-2.4606105E-2,2.332946E-1,-4.6692792E-4,2.7218381E-2,-1.5534358E-1,-8.6634696E-2,-1.2666202E-3,-1.5725364E-1,4.1393623E-2,2.0820357E-2,1.1506765E-1,-1.857479E-2,-1.6433631E-1,3.2667156E-2,-1.2185733E-2,1.6070127E-2,8.436271E-2,-3.2667246E-2,7.467327E-5],"categories":[],"categories_nodes":[],"categories_segments":[],"categories_sizes":[],"default_left":[0,0,0,0,0,0,0,0,0,0,0,0,0,0,0,0,0,0,0,0,0,0,0,0,0,0,0,0,0,0,0],"id":43,"left_children":[1,3,5,7,9,11,13,15,17,19,21,23,25,27,29,-1,-1,-1,-1,-1,-1,-1,-1,-1,-1,-1,-1,-1,-1,-1,-1],"loss_changes":[3.0429068E0,2.013425E1,1.0931751E1,2.3456081E1,2.655946E1,1.3415621E1,1.6103794E1,2.8302647E1,4.570529E1,1.3083805E1,2.2139011E1,3.4272934E1,2.8820486E1,1.3039093E1,1.3070051E1,0E0,0E0,0E0,0E0,0E0,0E0,0E0,0E0,0E0,0E0,0E0,0E0,0E0,0E0,0E0,0E0],"parents":[2147483647,0,0,1,1,2,2,3,3,4,4,5,5,6,6,7,7,8,8,9,9,10,10,11,11,12,12,13,13,14,14],"right_children":[2,4,6,8,10,12,14,16,18,20,22,24,26,28,30,-1,-1,-1,-1,-1,-1,-1,-1,-1,-1,-1,-1,-1,-1,-1,-1],"split_conditions":[-1.6123209E0,2E0,-1.4802307E0,-6.0828686E-1,1E0,-4.490202E-1,-1.4550706E0,3E0,-3.329381E-1,8.5746986E-1,1E0,-5.1457024E-1,-1.3096331E-1,2E0,-1.4424907E0,2.7218381E-2,-1.5534358E-1,-8.6634696E-2,-1.2666202E-3,-1.5725364E-1,